0,0,1,2,3,4,5,6,7,8,9,10,11,12,13,14,15,16,17,18,19,20,21,22,23,24,25,26,27,28,29,30,31,32,33,34,35,36,37,38,39,40,41,42,43,44,45,46,47,48,49,50,51,52,53,54,55,56,57,58,59,60,61,62,63,64,65,66,67,68,69,70,71,72,73,74,75,76,77,78,79,80,81,82,83,84,85,86,87,88,89,90,91,92,93,94,95,96,97,98,99,100,101,102,103,104,105,106,107
m_neutral,-0.5042811,-0.4273646,-0.5195569,-0.62985873,-0.62985873,-0.51991343,-0.62985873,-0.55620253,-0.60510564,-0.59248936,-0.39464855,-0.3414216,-0.5826074,-0.62985873,-0.62985873,-0.6020439,-0.38520873,-0.45689386,-0.22195342,-0.39993006,-0.62985873,-0.62985873,-0.59751135,-0.29523042,-0.554183,-0.32710785,-0.40230078,-0.20732903,0.08991549,-0.1580356,0.37907442,0.5301285,0.37006643,-0.3086889,0.32919723,0.12316072,-0.37701768,0.032740057,0.0038808435,0.09984037,-0.37846887,-0.60763735,-0.47613698,-0.5464584,-0.6032542,-0.35518825,-0.28821892,-0.08839479,-0.048920542,-0.096450984,0.094911434,-0.3592651,-0.08540073,-0.017139554,-0.4696558,-0.18026811,-0.45724595,-0.15639135,0.15256765,-0.05782765,-0.37348813,-0.05632776,-0.24619505,-0.41777265,-0.33961153,-0.38365042,-0.35066497,-0.50248766,-0.62985873,-0.62985873,-0.62985873,-0.5203739,-0.36554748,-0.19091427,-0.14712074,-0.30722022,-0.32592607,-0.08141428,-0.33955687,-0.42883807,-0.26587796,-0.4217847,-0.29282376,-0.39234394,0.07676791,0.1621977,0.15496263,-0.025246441,-0.096232295,-0.17972389,-0.41634893,-0.22887793,-0.10810858,-0.26708317,-0.4073472,-0.4662698,-0.48544168,-0.5026252,-0.4302975,-0.39958245,-0.075814724,-0.13570148,-0.0047148317,-0.18984285,0.16118085,-0.37171525,-0.199839,-0.18628612
f_sad,-0.110982805,-0.10388979,-0.063182116,-0.1145156,-0.112650216,-0.17213354,-0.2254444,-0.1921156,-0.17543533,0.0010588616,0.011522651,-0.20535856,0.45634604,0.24987966,0.18655446,0.30946356,0.34111968,0.5014076,0.64004725,0.50680494,0.53203857,0.5053239,0.5564495,0.41491944,0.6885323,0.80091023,0.43565106,-0.16061226,-0.12189096,-0.09907892,-0.110836476,-0.13507605,-0.09317008,-0.08858308,-0.22286198,-0.20939398,0.31179714,0.4623472,0.30117917,0.9755063,0.90286225,0.3050954,0.28067178,0.48363376,0.70966107,1.1756625,0.9121215,0.4974487,0.80127966,0.56454164,0.6463697,0.25927186,0.46599764,0.20533206,-0.046758324,0.049271494,0.0829289,0.1809119,-0.112656444,-0.01873286,0.16690421,0.012641773,-0.048956648,-0.08399734,0.35941678,0.14489722,-0.25488824,-0.34076214,-0.23141152,0.088798575,-0.14149791,-0.037984416,-0.42757422,-0.2900689,0.048392117,-0.14291278,-0.40258807,-0.3329987,-0.03772752,-0.086259365,0.058114752,-0.07692754,0.0053699464,0.08295722,0.20338058,-0.37785882,-0.1443511,0.068470895,0.043167964,0.032729566,-0.11073485,0.0982288,-0.18474823,0.051866516,0.028400213,-0.116408736,-0.19936487,-0.069821686,-0.16325137,0.15534523,-0.0072245,0.03968042,-0.18669245,0.047228307,0.17092574,0.070091635,0.5536978,0.011350274
f_neutral,-0.10138667,-0.14669478,-0.1275151,-0.15815896,-0.17277515,-0.21226862,-0.24270546,-0.17903852,-0.18277466,-0.14912423,-0.09994644,-0.1579377,-0.15814215,-0.054792345,0.09124353,0.0035122484,-0.1259304,-0.11613989,-0.16736051,-0.06287789,-0.106690794,-0.1600259,-0.18798414,-0.010138869,0.03441657,-0.103642076,-0.34146625,-0.047811195,-0.117561996,-0.0907163,-0.09219691,0.04056084,-0.06931898,0.13776292,0.4534779,0.39794478,0.16234833,0.34077486,0.48153773,-0.17115927,0.1892988,0.20490557,0.245971,0.010654628,0.4474801,0.3380671,0.32380176,0.39539453,0.37259248,0.24353859,0.4873177,0.23732439,0.17057146,-0.08572039,0.15994918,0.10308671,0.16745083,0.21796341,0.27015817,0.22957046,0.48203355,0.93486166,0.8081599,0.7437571,0.6606072,0.6217652,0.19876505,0.6058524,0.58531576,0.7635426,0.61712754,0.783475,0.9505227,0.7573022,0.77286494,0.6325606,0.63903785,0.83706313,0.85943514,0.9546181,0.46277046,0.11857967,0.08727733,0.16078879,0.19371928,0.26273063,0.4049698,0.5216364,0.9879862,0.9207874,0.5777807,0.5807277,0.6643671,0.4586723,0.5247209,0.61372185,0.6305249,0.4558833,0.6674289,0.881873,0.71292454,0.74444777,0.59608054,0.67398024,0.8452079,0.87680054,0.8449521,0.43905357
m_fear,-0.1553294,-0.12441826,-0.24344161,-0.10704443,-0.41390848,-0.11758849,-0.0011652112,-0.18645057,-0.49986172,-0.42658514,-0.62907517,-0.5486243,-0.6224952,-0.47319502,-0.39244115,-0.49569803,-0.23116285,0.07574066,-0.4789492,-0.3456545,0.14102276,-0.15483952,-0.30176535,-0.34301144,-0.3103971,-0.3762244,-0.43630952,0.15210976,-0.12877211,-0.17316005,-0.22298375,-0.15893817,0.28914103,0.18552193,0.015227243,-0.31930608,0.19220024,-0.13842034,-0.21665192,-0.44900352,-0.1638856,0.20050834,0.07356538,0.0734446,0.11656194,0.10807964,0.20402816,0.36805332,-0.034514353,-0.16685405,-0.32078135,-0.29604816,-0.37028503,-0.36685175,1.053349,0.43113542,0.17657821,0.077706955,0.031017244,0.44566724,0.3957246,0.30992526,0.31444058,0.40485272,0.37966853,0.25560984,-0.12102583,0.0298924,0.16404217,0.11022806,0.2848009,0.27839816,0.22244298,0.120144576,0.08928611,-0.0131034255,-0.12682417,-0.25569308,-0.34904838,-0.57328814,-0.4763043,0.42878723,0.14595926,0.13962413,-0.057686016,-0.0708276,0.3214902,0.3703587,0.3003973,0.25505105,0.41904074,0.35072434,0.17206666,0.033935428,-0.00667724,0.027124062,-0.0043536574,0.14988253,0.20029077,0.068006106,0.034221247,0.18361829,0.21093257,0.14580846,-0.020881861,-0.09521812,-0.22638234,-0.25381842
m_neutral,-0.39230567,-0.3156234,-0.4413693,-0.35349852,-0.29099682,-0.4544794,-0.4428501,-0.47990662,-0.62985873,-0.2661942,-0.102306336,-0.29086468,-0.59172064,-0.1761342,0.10459827,-0.35043532,-0.49825484,-0.23355582,0.20382366,-0.35620904,-0.5350247,-0.13382545,0.11420908,-0.23731765,-0.5014029,-0.4190597,-0.41878486,-0.5732345,-0.5940174,-0.62985873,-0.47128552,-0.5600326,-0.2793894,0.051508352,0.011534527,-0.2191698,0.01735358,0.058734164,0.11751346,-0.17463103,-0.09200671,-0.11486131,-0.31685764,0.048901364,-0.04096812,-0.1003432,-0.10537422,0.09482404,0.18338619,0.028842106,-0.21877736,-0.38673353,-0.37398112,-0.35592514,-0.48179471,-0.49570364,-0.4778183,-0.33816153,-0.32165605,-0.07282868,0.12449998,0.19384822,0.1648426,0.10849453,0.16705656,0.13367455,-0.15647691,-0.035060227,0.1151595,0.07843415,0.23634844,0.13384068,0.1546876,0.12605652,0.24127495,-0.05476843,-0.009128198,-0.016810805,-0.20462492,-0.32036573,-0.3626451,-0.38633537,-0.35174775,-0.4314646,-0.33583385,-0.29703352,-0.17889214,0.2160906,0.21722081,0.28323486,0.28800875,0.296185,0.2112644,0.06598184,0.10815845,0.23905249,0.20348361,0.39655182,0.2470083,0.21973078,0.2754259,0.21131489,0.31432566,0.2701233,0.11764158,0.0748284,-0.18815988,-0.29288638
f_fear,0.5090735,0.35436058,0.029220462,0.2011855,0.32737654,0.6869273,1.0633487,0.71662647,0.65126073,0.6512091,0.47676873,1.1403699,0.95572495,0.84996605,1.0883446,1.1649419,0.54412913,0.8535534,1.1781418,1.1800227,0.9552556,0.4575485,0.15410951,0.2049948,0.4111405,0.22054434,-0.06660852,0.75726247,0.65769076,0.84591764,0.3752495,0.6834598,0.45801213,1.3365798,1.3477824,1.1591177,1.2951953,1.286845,0.4063614,1.1605871,1.4942017,1.4937434,1.6049182,1.5630956,0.72142607,0.95357287,1.2165916,1.095232,0.7248908,0.32255128,0.28416938,0.2541941,0.24002214,-0.16735354,0.61634827,0.5487182,0.2998077,0.41949588,0.3239934,-0.23850885,-0.21176308,0.019051597,-0.1939666,-0.34763265,-0.17409006,-0.07916018,-0.24938619,-0.22939688,-0.28063667,-0.02422975,0.013104498,-0.18032825,-0.41788614,0.40968803,0.732935,0.35935003,0.06043181,-0.029851407,0.15035348,-0.008739591,-0.21539667,0.15624458,0.18118626,-0.31479275,0.20504902,0.10460399,0.18690836,0.1614189,-0.2131333,-0.108716816,0.16500513,-0.11526534,-0.045206264,-0.22687143,-0.1611329,-0.45788038,-0.44185662,-0.40444964,-0.24371508,-0.09396413,-0.6056044,-0.5848531,-0.33333594,-0.4815867,-0.17937282,-0.029103294,-0.08106044,-0.22365788
m_surprise,0.10717633,0.005858287,-0.16537794,-0.042031184,-0.016323864,-0.11808571,-0.09049904,-0.1915893,-0.18254116,0.4263537,-0.001437828,-0.007239774,0.18234457,-0.143285,-0.108451486,0.17254567,-0.056848615,-0.29038045,-0.32957262,-0.34287196,-0.30223536,-0.2768679,-0.2301912,-0.16338801,-0.0955542,-0.11881524,-0.21442491,0.12669963,0.10324705,-0.0968239,-0.11830965,-0.118445426,0.24941948,0.7248315,0.4620591,0.35919327,0.32291722,0.43634057,0.70987636,0.31475675,0.5651615,0.3301158,0.4225445,-0.013257369,-0.324737,-0.39738536,-0.54890543,-0.5120267,-0.48597622,-0.522613,-0.48423314,-0.42751253,-0.46918708,-0.43399167,-0.29076275,-0.24812698,-0.30633277,-0.18248147,0.08825006,0.07644826,0.30668804,0.86814934,0.69668967,0.95217204,0.83783984,0.9755589,0.7341019,0.7563431,0.73017097,0.5726073,0.532685,0.049826995,-0.044432774,-0.25747174,-0.40048742,-0.3157491,-0.38331598,-0.39787132,-0.3908472,-0.42516863,-0.41238523,-0.5375316,-0.43361896,-0.40478897,-0.27817968,-0.04257068,-0.45443285,-0.40569586,0.051095143,0.2699464,0.6451576,0.7517045,0.82123727,0.84113955,0.7915431,-0.013557062,-0.25257134,0.47507498,0.04914111,0.055161208,-0.19714433,-0.3247593,-0.248146,-0.33178067,-0.40582043,-0.43649793,-0.46672904,-0.43422407
f_sad,0.02451092,0.014872149,0.05985628,0.10295352,0.14220476,0.23645681,0.29597652,0.29030138,-0.07841092,-0.06787118,-0.28122306,-0.21057424,-0.10541767,-0.06948304,-0.07444355,0.14070715,-0.07749316,-0.20701247,-0.1734722,0.06365797,0.14004776,0.17424501,0.07627633,-0.061781734,-0.1384508,-0.13281265,-0.18224427,0.021718591,0.01658748,0.047309756,0.16255674,0.20755188,0.41390783,0.57261467,0.5424218,0.4445013,0.6430409,0.21835747,0.31793192,0.63163245,0.42849815,0.4072433,0.20578423,0.34903854,0.3364842,0.21146062,0.45780352,0.3064968,0.44505796,0.42765373,0.41978878,0.0971074,-0.048566997,-0.17363209,0.2220887,0.22144002,0.36161417,0.46379104,0.531743,1.0174037,1.431185,1.1642928,1.1102173,0.9909386,0.9154381,0.7006049,0.99184805,0.8150861,0.86863625,0.74374026,0.67754054,0.547714,0.5865395,0.74124604,0.7860279,0.9066676,0.87843895,0.87047637,0.4451689,0.15156946,-0.027485564,0.17589122,0.15957251,0.26220268,0.26185045,0.49436727,0.18122096,0.37178046,0.6596183,0.8970232,1.0109689,0.87743306,0.60675985,0.9655262,0.9521367,0.9381033,0.7031141,0.63432527,0.53649783,0.516488,0.6689259,0.63827205,0.674173,0.71612203,0.73131907,0.4222375,0.15933198,-0.022642553
m_happy,-0.043377712,-0.048084453,-0.022241741,-0.12912977,-0.27632925,0.07497105,-0.37134635,-0.19829565,-0.03667216,-0.2452519,-0.24938905,-0.21788016,-0.31377298,-0.33003312,-0.3433941,-0.49125952,-0.62985873,-0.56367207,-0.4987092,-0.3222803,-0.2736549,-0.27570397,-0.29536065,-0.033166945,-0.064784825,-0.041661784,-0.13663495,0.10309361,0.1299392,0.22521366,0.81528187,1.0202689,0.66074604,0.3182548,0.26186043,0.3281495,0.38597423,0.34203684,0.3899635,0.5006732,-0.18581846,0.14567527,0.11659401,-0.43459117,-0.4508779,-0.52257097,-0.56460625,-0.47991955,-0.4370258,-0.42872065,-0.18714425,-0.21701044,-0.17973885,-0.23263031,0.20426108,0.25664237,0.2945068,0.4469042,0.7192207,0.4266836,-0.11904675,0.086529806,0.10544368,0.04686801,0.056755394,0.05897741,0.25436208,-0.25291717,-0.11298329,-0.39253396,-0.4798571,-0.32894272,-0.34914243,-0.23873267,-0.06568754,-0.11081776,-0.24388018,-0.11870438,-0.15505922,-0.13408124,-0.21284929,0.19516847,0.19502464,0.3702094,0.616691,0.58427477,0.5174062,0.059387535,0.15444516,0.1906035,0.08827207,0.20498218,0.07488747,-0.31692457,-0.29623595,-0.18956462,-0.225889,-0.3860358,-0.34974313,-0.44340944,-0.44667983,-0.35794842,-0.4712553,-0.34404588,-0.15255761,-0.19900739,-0.13766974,-0.2549873
m_happy,-0.058982357,-0.04715392,-0.021497965,-0.10812971,-0.42425555,-0.24140704,0.0058045685,0.086017616,-0.20726338,-0.43006784,-0.56830573,-0.6169561,-0.6147343,-0.41655266,-0.39847475,-0.29911965,-0.42139125,-0.0774886,0.0046254992,-0.499214,-0.3838684,-0.618003,-0.16010395,-0.061300874,0.13059199,0.3125056,-0.19457617,-0.06364471,-0.056684464,-0.03012453,-0.22121713,-0.10801187,0.14583114,0.07028375,0.23482403,-0.0040587336,-0.009245828,0.14736119,-0.29930192,-0.2406365,0.26528537,0.26401296,0.44655257,0.28157032,0.13927543,0.14715396,0.31544757,0.24814539,0.18602325,0.552083,0.5524528,0.7550568,0.56784284,0.15925552,0.07812331,0.20170759,0.21696413,0.10096228,0.45214882,0.6018927,0.6017244,0.64453566,0.69003046,0.57658947,0.38959664,0.17422828,0.09059346,0.50563204,0.48217744,0.56372046,0.54287493,0.4405666,0.461303,0.32362962,0.41135168,0.30662903,0.3133266,0.44493294,0.30392396,0.4501146,0.14097726,0.05031401,0.16720214,0.16806759,0.16642827,0.43370014,0.72994506,0.7127612,0.8713858,0.77046543,0.63140357,0.4561314,0.21071845,0.17877279,0.5301516,0.66946375,0.7260982,0.6298454,0.49800655,0.4136833,0.35113585,0.26569924,0.29696032,0.42048657,0.17280273,0.37528068,0.5302485,0.2865937
m_sad,-0.27942213,-0.15397489,-0.07520881,-0.21851769,-0.27784938,-0.26419798,-0.39549625,-0.19534805,-0.4759974,0.0118807405,0.040173396,-0.29773554,-0.40745777,0.00027619302,-0.15307832,-0.5331594,-0.27967033,-0.0060656816,0.118822485,-0.16998783,-0.37381804,-0.3326022,-0.3054064,-0.23993835,-0.19183362,-0.19161785,-0.24104053,-0.11893201,-0.096990615,0.020111933,0.11002054,-0.1316528,0.088011794,0.22355953,0.20406288,-0.025282979,0.02965495,0.011226922,0.13221847,0.36017537,0.01041688,0.2593746,0.10039183,0.28104925,0.35069305,-0.036170244,-0.13759711,-0.2959081,-0.48505878,-0.44559932,-0.4274224,-0.30365682,-0.33202648,-0.3392009,-0.401788,-0.314968,-0.2873602,-0.04686679,-0.110503495,0.17747843,0.50413764,0.25386763,0.24022782,0.3025472,0.3356737,0.27285564,0.46511203,0.42005047,0.44760674,0.2522238,0.20673993,0.22212157,0.02886574,-0.11289561,-0.19901893,-0.25916746,-0.2384947,-0.2816438,-0.2017942,-0.3590815,-0.28810632,-0.46363014,-0.16052017,-0.3706302,0.0015182942,-0.013522208,0.58521354,0.54965806,0.5199921,0.3336149,0.44169232,0.38779813,0.42754978,0.557321,0.4673516,0.5568329,0.42104608,0.3658922,0.3390965,0.20848799,0.13712598,0.039571315,-0.109175295,-0.23193449,-0.14873084,-0.31415004,-0.3147545,-0.35830396
m_neutral,-0.009383127,-0.043135777,-0.055783793,0.021891847,-0.08501497,-0.19493684,0.25726742,-0.049109653,-0.26515263,-0.26132235,-0.47796816,-0.17976806,-0.33815342,-0.39812237,-0.3594346,-0.3962465,-0.34257805,-0.30981845,-0.25539845,-0.2534714,-0.27667955,0.025744513,0.0479894,-0.3329938,-0.45363802,-0.3588372,-0.16697901,-0.0073239356,-0.063537866,-0.045268133,0.021713302,-0.013911054,0.17242144,0.18307146,0.14932749,0.24157096,0.28962812,-0.06424701,0.49188578,0.20770723,-0.04780422,-0.2296178,-0.4438541,-0.395644,-0.38561004,-0.3287688,-0.33014238,-0.1792351,-0.011832997,-0.06626931,0.20418373,0.5491402,0.6237011,0.4297624,0.17066729,0.13426496,0.20280051,0.26923674,0.31427878,0.46186084,0.724103,0.7472434,0.86923945,0.7070417,0.48413816,0.6953318,0.40870342,0.32782224,0.17913242,0.0013091564,-0.22355354,-0.16200459,-0.22126779,-0.124774665,-0.0013570338,0.38321745,0.33415246,0.4237762,0.6322566,0.7114474,0.31722838,0.12920026,0.11490047,0.20103492,0.25060993,0.2841465,0.65949136,0.72537863,0.9433953,0.96793866,0.9424188,0.73638684,0.83258814,0.62647045,0.38542664,0.3595085,-0.010298684,-0.032057285,-0.12820473,-0.13988495,-0.07241818,0.059846967,0.3373168,0.3151558,0.6643701,0.90919036,0.9107124,0.42426
m_surprise,-0.06914124,-0.012694851,-0.03820184,0.16344193,-0.1937229,-0.17840746,0.27910197,0.3609522,-0.101620466,-0.028516918,-0.42367733,-0.24253136,-0.4491577,-0.27102596,0.120272554,-0.43700254,-0.46719283,-0.06411293,0.09852489,-0.00037579238,-0.3673063,-0.27137327,-0.25849196,-0.15368032,-0.14609689,-0.09979138,-0.14769158,-0.20205727,-0.16908157,-0.11452839,0.029474571,-0.17557773,0.054383233,0.23252188,0.20001288,0.28645825,0.36435997,0.1519131,0.43271595,0.5123712,0.29786378,0.121585906,0.17864665,0.11038928,0.45043012,0.16020079,0.01825513,-0.34292293,-0.37611353,-0.513574,-0.39445782,-0.38176298,-0.3249809,-0.26665613,-0.16522363,-0.06875086,0.028922975,0.12646437,-0.0372777,0.059037954,0.46781695,0.14817593,0.56333035,0.44900054,0.40938467,0.43317157,0.3908537,0.34833264,0.3720398,0.22867075,0.08873811,0.10156745,0.21182024,-0.0011038631,-0.1335924,-0.16290429,-0.3120123,-0.2458111,-0.33168417,-0.21563664,-0.24947146,-0.19350168,-0.083899885,0.014170051,0.079128616,0.028939262,0.20861508,0.5138073,0.29232886,0.5044583,0.7300145,0.45686534,0.62994033,0.59243643,0.3153347,0.27903798,0.27455443,0.1904218,0.3212433,0.09741252,0.020248279,-0.024511606,-0.09678829,-0.25846067,-0.26474643,-0.38461322,-0.22535709,-0.3050304
f_neutral,-2.3126602e-05,-0.040516034,-0.007507533,-0.001584515,0.06835561,0.01080814,0.0945369,0.18594892,0.26405227,0.21462132,-0.020453393,-0.024678767,0.1528106,0.12942187,-0.07878068,0.075937614,-0.034246355,0.058205605,0.00088854134,-0.0626314,-0.17457122,0.13454197,0.25239974,0.46761048,0.3517892,0.3299835,0.02454564,0.004474923,-0.03183736,-0.033116817,0.068724714,0.115009874,-0.08291909,0.7098094,0.9014767,0.77594,0.83814096,0.425833,0.028401539,0.34213385,0.46188697,0.11801237,0.61184645,0.55860543,0.3948278,0.37635702,0.58213043,0.37971562,0.82208246,0.8835583,0.85509884,0.9508054,0.97060615,0.35768905,0.15685245,0.13191819,0.15810315,0.20989175,0.20842554,0.36804718,0.17984435,0.48411152,1.257303,1.3422348,0.61847174,0.43731403,0.6522696,0.90788174,0.62492454,0.95135254,0.91110396,0.82702225,0.7169788,0.6857667,0.58915055,0.8541267,0.95993227,1.2305994,1.2208235,1.3584986,0.8213096,0.09944368,0.06649682,0.1004451,0.09964108,0.11611916,0.101453125,-0.4426834,-0.2304517,-0.12680009,-0.17307448,0.15283233,0.053708717,0.27982783,0.6601566,0.27384531,0.43698925,0.8139018,0.55349874,0.5625347,0.5270547,0.61191714,0.74379575,1.0547811,1.0931028,1.1618788,1.1513593,0.6338047
m_fear,0.45887354,0.32045004,0.18326856,0.7556588,0.009147406,0.036251158,0.253578,0.3125034,-0.23303375,0.26386794,0.62142885,-0.087995976,0.32340983,0.72446376,0.22753298,0.19585796,0.25280577,0.071894,0.08749762,0.100904755,-0.049796045,0.722775,0.37943575,0.06457712,0.39490455,1.022922,0.44022685,0.48215866,0.3110951,0.3754797,0.3753584,0.3109319,0.663034,0.95700824,0.95515525,0.9060152,0.8050069,0.9891741,0.82654136,0.84237707,0.7175596,0.618104,0.9969235,1.0449178,0.8077839,0.43422222,0.49444982,0.57576996,1.0386782,1.0903091,1.3371422,1.5948913,1.7200365,0.9245041,0.12999211,0.31233186,0.04009825,0.41504097,0.25929037,0.41295463,0.9979887,1.060092,1.1239321,1.3460124,1.2228255,0.9988773,1.2359638,1.4987149,1.0763593,1.5825627,1.6432996,1.2619436,0.85209876,0.67448187,0.72716296,1.179158,1.2233052,1.4182878,1.6419203,1.6253808,1.0554658,0.063627735,0.15252686,0.26928663,0.19447672,0.22808972,0.4275213,0.009728283,0.34151614,1.0313432,0.4567227,1.1434557,0.85506684,0.5869292,-0.091088,0.49930817,0.18321984,-0.062271327,0.44146088,0.27997637,0.26314408,0.17437065,0.88092715,0.86799085,1.0775503,0.16152002,-0.26573625,-0.32310188
f_sad,-0.009242684,-0.15211454,0.03827989,-0.16424465,-0.19169614,0.015793294,0.23589179,0.15102263,-0.26060432,-0.12463474,-0.26560077,-0.52058464,-0.4754337,-0.42328912,-0.38599896,-0.25548393,-0.3923911,-0.044925153,-0.14881003,-0.3514188,-0.46034527,-0.1285621,0.08150636,-0.07760954,-0.34254467,-0.37051713,-0.3694222,0.2869722,-0.070268154,0.08712911,-0.10073367,0.026732072,0.3628865,0.3772518,0.37065333,0.047667712,0.18857571,0.24314159,-0.0026368499,-0.15561435,0.21212772,0.3938663,0.40306562,0.11523486,0.09855747,0.29421034,0.2721417,0.26534966,0.4930151,0.4427396,0.10168508,0.0050540417,-0.17503718,-0.292574,-0.3499863,-0.27296624,-0.19270763,-0.20575204,0.06455445,0.48960695,0.7188403,0.638034,0.5633091,0.61634314,0.55913514,0.42999113,0.27736607,0.4209593,0.5986303,0.4894218,0.49370274,0.5271212,0.6751282,0.5062329,0.43983644,0.504908,0.6292765,0.56838715,0.30882156,0.10049162,-0.101450205,-0.4920423,-0.4178506,-0.11143732,-0.0671671,-0.30897927,0.31766057,0.5929842,0.62171924,0.54633033,0.5065615,0.63737977,0.57453746,0.3438649,0.5207039,0.71774477,0.6279981,0.6477321,0.4415796,0.7641457,0.600621,0.44758722,0.49806175,0.5776216,0.5703968,0.4086855,0.23354259,-0.04840681
m_disgust,-0.014740244,-0.49373126,0.3463372,0.4969546,-0.12547317,-0.36250675,-0.35802257,-0.472857,-0.62985873,-0.023730695,-0.08181304,-0.62985873,-0.43408102,-0.62985873,-0.44943768,-0.62985873,-0.4929639,-0.5539052,-0.62985873,-0.52166563,-0.62985873,-0.62985873,-0.6294843,-0.52377516,-0.39133978,-0.4488535,-0.4891764,0.621619,0.46436295,0.88336736,0.7797932,0.89305747,0.07997432,0.4630201,0.2766893,0.14587553,0.105729565,0.16307539,-0.32496482,0.07080203,-0.044515982,-0.16543803,-0.20611453,-0.12012318,-0.123925954,-0.5137832,-0.43831742,-0.5422843,-0.44608617,-0.4666986,-0.42013514,-0.37334454,-0.41708112,-0.46215862,0.39555562,-0.124482095,0.5137664,0.27807727,0.20770223,-0.4165163,0.073963396,-0.1271998,-0.42454636,-0.13015395,0.07532518,-0.53590214,-0.11989188,-0.41730452,-0.3983627,-0.4391327,-0.47167927,-0.46762663,-0.6222091,-0.5779295,-0.47904474,-0.40913337,-0.5072739,-0.48378652,-0.51062673,-0.44143802,-0.52386004,0.43431073,0.28359905,0.6230221,0.707999,0.48729452,-0.2000837,0.20025635,-0.09919605,-0.2969705,-0.21858579,0.1605426,-0.24019447,-0.08867568,-0.25099483,-0.3349408,-0.2504962,-0.329987,-0.2862026,-0.57431954,-0.3476442,-0.35454565,-0.5107998,-0.4069386,-0.51323533,-0.472261,-0.40040016,-0.48508435
m_sad,-0.4361229,-0.2495662,-0.32548308,-0.062751085,-0.46327972,-0.56875587,-0.62985873,-0.57006323,-0.61473936,-0.62985873,-0.55030197,-0.47254032,-0.4443223,-0.2587941,-0.5603085,-0.47464442,-0.33115876,-0.5744875,-0.62985873,-0.22247404,-0.5736734,-0.49850535,-0.35050607,-0.17339838,0.0775373,-0.38071668,-0.58136684,-0.005358517,0.7193374,0.92608935,0.73799664,0.89116853,0.49508986,0.44496426,0.28431636,0.37222666,-0.15704614,0.07784058,0.24434063,-0.078357846,0.39247906,-0.06912628,0.41538408,0.24420737,0.24361563,0.05301954,0.500841,-0.03482482,0.49416614,0.04685773,0.7371988,0.52324986,0.48907834,0.2135515,-0.027387455,0.8066944,0.9105077,0.89084196,0.35060602,0.07935823,0.42568767,-0.05977112,0.12842427,-0.16036028,-0.17493194,-0.04581298,-0.18930906,0.0043137074,-0.13865063,-0.12005016,-0.18104655,-0.12698936,-0.34990484,-0.019226119,-0.37726933,-0.09366819,-0.49278128,0.1243574,0.09966441,0.10943475,-0.12191826,0.012856036,0.52565,0.89330757,1.1220026,0.6835598,0.14570734,0.4694074,0.25561953,0.42753202,-0.04640317,0.14655253,0.09949064,-0.19134313,0.03059803,-0.11457622,-0.12759739,-0.1724706,-0.102017075,-0.1498088,0.09384896,-0.18786776,-0.04508497,-0.23059201,0.31438303,0.21654306,0.60940313,0.2506588
m_happy,0.35973966,0.04562877,0.17580485,0.124978416,0.2949093,0.1013986,-0.0068062395,0.09941631,-0.14713982,0.3308164,0.56784475,-0.13887128,-0.056240946,0.47344595,0.5442073,0.1706984,0.14940006,-0.09885153,0.24648985,0.65207577,0.3096084,0.32172173,-0.08844769,-0.13745269,0.2717958,0.70761406,0.3997017,0.4887336,0.06998707,0.17743793,0.14045766,0.24375051,0.5151198,0.71733385,0.932848,0.9049273,0.69166666,0.9060083,0.88804,0.6752552,0.92216265,0.750793,0.9380147,0.95501995,0.8380958,0.79179466,0.9318227,1.3848679,1.4945633,1.2865591,1.1337168,1.5708835,1.5406349,1.0277052,0.16394898,0.16565779,0.1941498,0.2564438,0.3424105,0.67743254,0.83991206,0.98317176,1.0680151,0.94264084,1.3484256,1.0239155,1.1220227,1.7995167,1.7523673,1.2480636,1.5548282,1.4480925,1.7383685,2.0837595,2.0957007,2.3468726,2.1236668,1.4293735,1.6113651,2.081968,1.3355956,0.18265115,0.023149282,0.09634396,0.04286094,0.19818072,-0.044303328,-0.31511676,-0.25206518,-0.1231336,0.27307686,0.8135278,0.9399337,0.6615225,0.55081487,0.38960433,0.43204033,0.20019898,0.6537654,0.34710586,0.49862647,0.5709593,0.3232423,0.7788331,0.49854663,0.82696986,0.26813972,0.08673982
f_neutral,-0.24185923,-0.11931893,-0.21326414,-0.33734387,-0.20134386,-0.072001815,0.055942044,-0.09658021,0.028491348,0.26365852,-0.16296291,0.2209723,-0.021244287,0.014226556,-0.060127586,-0.07362169,0.2667556,0.13898404,0.009324908,-0.17246976,0.1912353,0.3364693,0.17092368,-0.10866326,-0.16750398,-0.11629552,-0.2184233,-0.24753973,-0.00064891577,-0.3032773,-0.42032963,-0.22581115,0.27288726,0.5731052,0.64672136,0.08683544,0.26718628,0.19395873,0.11523185,0.14047916,0.1517935,0.2138917,0.26937014,0.19811608,0.29406703,0.43003047,0.54302907,0.3760777,0.42880955,0.6029414,0.36192462,0.1274299,0.009726375,-0.11489308,-0.18747056,0.39016086,-0.22062767,-0.24883637,-0.1389713,0.36227164,0.8402477,0.86044705,0.63832664,0.695519,0.6078898,0.7426018,0.58717525,0.60416746,0.8611446,0.713514,0.6713524,0.68010765,0.75627065,0.72881633,0.82123685,0.83682466,1.0422409,0.8758642,0.52053833,0.305609,0.046125114,-0.28429532,0.16600105,-0.23693949,-0.15149096,-0.17323819,0.044492036,-0.29197308,-0.01556848,0.13220423,0.31460604,0.34589046,0.39112535,0.37700987,0.19935657,0.33181912,0.39025697,0.4348982,0.44706103,0.6077043,0.6863228,0.7886458,0.86437494,0.9631334,0.9207549,0.5380539,0.44555563,0.06163378
m_happy,-0.2790995,-0.14287826,-0.13241133,-0.22132227,-0.32155037,-0.3555529,-0.40128565,-0.44744492,-0.4781319,0.14103259,-0.22049925,-0.3322779,-0.22312853,0.14150964,-0.39560795,-0.2934229,0.09405501,0.15768796,-0.2529384,-0.35093266,-0.30431348,-0.3010424,-0.2830215,-0.19548684,-0.15317997,-0.16340241,-0.20193878,-0.39381647,-0.23934633,-0.25028488,-0.20757046,-0.28559896,0.08778659,0.13535906,0.13479793,0.06173122,0.1046963,-0.011948198,0.5094484,0.25815752,0.029106498,0.2228098,0.24905604,0.21482788,-0.07882324,-0.20119888,-0.3895982,-0.41720384,-0.42609525,-0.4700083,-0.33010948,-0.30679658,-0.35723042,-0.31184304,-0.31621546,-0.10163808,-0.10383287,-0.06083402,-0.04231143,0.120915435,0.3488819,0.24238153,0.28293592,0.54151195,0.47180295,0.43852493,0.5150124,0.3998283,0.25608623,0.17983732,0.087297,0.17154169,-0.09959039,-0.08977088,-0.18555334,-0.21390307,-0.39243698,-0.34540296,-0.2917412,-0.3169533,-0.30863807,-0.32898343,-0.15713346,-0.08340576,-0.14171922,-0.18262196,0.29706195,0.43358132,0.5012303,0.48913768,0.5888313,0.5429776,0.7143112,0.5054585,0.44943407,0.49110106,0.38350976,0.3487363,0.21439677,-0.031216577,-0.12229779,-0.13630167,-0.21567193,-0.23291045,-0.36630154,-0.2643806,-0.299906,-0.32683027
m_angry,-0.09597972,0.018722698,-0.021132678,-0.021296099,0.0145261735,-0.22737479,-0.2844208,-0.4274819,0.19673324,-0.17293975,-0.27633864,0.36525548,0.051579744,-0.22536787,-0.37923372,0.20720142,-0.18407863,-0.48709255,-0.14013958,0.07883238,0.398939,0.12996474,-0.26042894,-0.26965386,-0.293574,-0.23615944,-0.23851633,-0.28384072,-0.14992717,-0.25403276,-0.14036766,-0.19760296,-0.28629917,0.15013422,0.19229732,0.13899563,0.14968337,-0.10243711,0.27677083,-0.10734886,0.3465889,0.41120613,0.12657693,0.34225684,0.34816217,0.41118133,0.6679944,0.33876932,0.100228265,-0.09893775,-0.30971494,-0.43316865,-0.41188657,-0.32867104,-0.26134062,-0.0056159347,-0.09762162,0.029005304,-0.027202383,0.0066465437,0.08199984,0.21132538,0.33996952,0.24894266,0.04925184,0.4152779,0.21504362,0.3045901,0.37931395,0.3966803,0.33855832,0.21503592,0.22658014,0.3519163,0.25932777,0.14437564,0.08128555,-0.084760875,-0.29426423,-0.24721128,-0.29631212,-0.29396755,-0.057793155,-0.1340535,0.017392471,-0.1176731,-0.027144045,0.37288174,0.49668622,0.59551406,0.4842345,0.32627803,0.52570415,0.24761191,0.5059,0.3764863,0.42233568,0.43106043,0.27997458,0.46780083,0.5097252,0.2718156,0.18659055,0.086124755,-0.052618608,-0.26511252,-0.21442175,-0.3179558
m_sad,-0.37140906,-0.4340858,-0.12624022,-0.40487468,-0.29017425,-0.32543045,-0.37837583,-0.4569674,-0.34147197,-0.4541561,-0.1532256,0.120495185,-0.25880277,-0.37608707,-0.31438935,-0.1784274,-0.4050929,-0.5122551,-0.34302014,-0.19716185,-0.1300138,-0.42719787,-0.48324496,-0.43519717,-0.39461637,-0.3248679,-0.41940516,-0.57617146,-0.57464284,-0.35904294,-0.6169885,-0.4984467,-0.12603623,0.10912354,-0.095354974,0.05207081,-0.14815995,-0.076051295,0.03537874,-0.16442728,0.025904775,-0.0764367,-0.22044933,-0.13947168,-0.2306146,-0.12994143,-0.10178915,-0.3209197,-0.37233633,-0.52453953,-0.53301156,-0.44576848,-0.5047062,-0.5195665,-0.5409445,-0.40605527,-0.299552,-0.3269711,-0.33804196,0.0207659,0.25211862,0.27131706,0.1753664,0.14971441,0.13972525,0.32169855,0.14667772,0.23099867,0.19684117,0.16664122,0.06409839,-0.08033618,-0.13375214,-0.13768068,-0.07134485,-0.14206558,-0.22072685,-0.24863237,-0.3112567,-0.38143414,-0.5223152,-0.3870811,-0.3650269,-0.23712906,-0.25330293,-0.24303237,0.16492853,0.37036347,0.4056354,0.50537145,0.30275735,0.30409062,0.33039606,0.34825346,0.3454128,0.32448512,0.3268963,0.17479551,0.08166456,0.023612753,0.017793924,0.14355041,0.16664328,-0.03029102,-0.10587627,-0.12398401,-0.27062842,-0.42043245
m_angry,-0.24670684,0.25252414,-0.026606753,-0.3135478,-0.62985873,-0.4078523,-0.12551895,-0.32745898,-0.30742905,-0.3991763,-0.5807604,-0.62985873,-0.53135526,-0.2986853,-0.35349494,-0.2989373,-0.48452008,-0.5109893,-0.62985873,-0.62985873,-0.62985873,-0.51397026,-0.3294165,-0.2963144,-0.255233,-0.27526605,-0.37119842,0.7024029,1.3457172,1.3291316,1.4567854,1.1863015,0.5849613,0.602812,0.47347763,0.5840741,0.58213085,0.6215917,0.47769934,0.45211142,0.48720008,0.3654014,0.400545,0.34951854,0.23925245,-0.09569743,-0.37250042,-0.43374276,-0.44464958,-0.53912216,-0.5255332,-0.46347958,-0.42823958,-0.4337142,0.45769724,1.0773945,0.9355915,0.98404396,0.5755735,0.15946442,0.41845387,-0.019120663,0.10262757,-0.030553952,-0.053683802,-0.12890935,-0.05192399,-0.026120916,-0.06350911,-0.21741223,-0.24576122,-0.29167882,-0.6160452,-0.5719161,-0.56032926,-0.55386925,-0.4542755,-0.42428237,-0.37212497,-0.3728614,-0.46074373,0.65804553,1.7341895,1.5471549,1.4788964,1.1580236,0.38061792,0.58755326,0.24575026,0.17117494,0.116917394,0.12489895,0.06834174,0.09943297,0.18837729,0.1052388,0.09573968,0.043468967,0.102227286,-0.19192436,-0.43248218,-0.40813142,-0.49192983,-0.3865983,-0.41100043,-0.48906624,-0.42748868,-0.4576754
m_happy,0.14344914,0.16527268,0.09264208,-0.44575107,0.23692264,-0.0751698,-0.18961942,-0.62985873,-0.4333791,-0.62985873,-0.27877083,-0.50064135,-0.29728404,-0.20632917,-0.14039326,-0.1091117,-0.10502154,-0.15160552,-0.62985873,-0.62985873,-0.58817303,-0.3660711,-0.09336144,-0.041051343,-0.13695753,0.104486726,-0.0421869,0.24617432,0.2907344,0.28182524,0.52907884,1.5100124,0.7834898,0.7456905,0.626056,0.6816532,0.5046351,0.6898794,0.6606866,0.6130518,0.6120833,0.5275272,0.48678198,0.39965218,0.23526894,0.17846437,-0.14479908,-0.2692718,-0.31679124,-0.37528682,-0.43302578,-0.3828057,-0.13591164,-0.18127462,0.2843358,0.30140305,0.32560706,0.5639616,0.5479077,0.17553335,0.23576176,0.21836972,0.15179312,-0.011045039,0.15491405,0.19764644,0.23897448,0.05588305,0.07339154,0.22514366,0.047994614,0.04629682,-0.10964039,-0.3642105,-0.51150596,-0.45458692,-0.4777544,-0.45080674,-0.40103155,-0.109547555,-0.19221127,0.22524294,0.26527965,0.30979276,0.6555792,1.0095,0.7095956,0.32329005,0.41232604,0.47459537,0.24975637,0.30296457,0.3308179,0.3076336,0.3465826,0.24766415,0.16159178,0.31245115,-0.035513043,0.019224688,-0.21870473,-0.3923937,-0.38100874,-0.48158014,-0.4074031,-0.41995788,-0.16533509,-0.2319698
m_surprise,0.19159369,1.1204393,0.4640905,1.0383166,0.41550517,0.2472602,-0.11322698,-0.16101277,0.011642396,0.07118618,0.4215597,0.019629896,-0.0006956607,0.064585716,0.46232092,0.049902424,0.18878213,0.24237433,0.5835186,0.21442738,-0.14844194,0.50387466,0.3820723,0.25645745,0.25651997,-0.33901584,-0.3413666,0.95517313,2.127081,1.9582489,2.1929412,2.312294,2.215845,1.3693781,0.7140123,1.1134182,0.76549494,1.0030854,1.1417146,1.0290613,1.1122656,1.0818026,1.0730841,1.3818433,0.94739324,0.8139647,1.0287106,0.5501955,1.8066247,1.336654,0.9982066,1.6605537,0.8609569,0.25872973,0.45539862,0.60919154,0.7603946,0.4137226,-0.02988325,0.5194259,0.8136078,0.2499446,0.7456603,0.53802,0.7609282,0.29271618,1.0767453,0.65877354,0.5267638,0.914897,0.81181526,0.81787604,0.8590376,0.7723704,0.4716797,0.8477042,0.62622404,0.89155966,0.05680543,0.36167982,0.07966745,-0.15556335,-0.62985873,-0.62682587,-0.55728817,-0.3584684,-0.62985873,-0.35371423,-0.55512065,-0.116847694,-0.39669192,-0.62985873,-0.59976155,-0.24623126,-0.4468525,-0.49213135,-0.47692657,-0.62985873,-0.34106988,-0.36512077,-0.39481765,-0.09543502,-0.62985873,-0.5825774,-0.26473907,-0.62985873,-0.62985873,-0.56538033
m_fear,-0.23014939,-0.013489917,-0.06372374,-0.015481159,-0.1598343,-0.2331008,-0.40521717,-0.48059434,-0.27451918,0.36980617,-0.26725748,-0.5590303,-0.1716184,0.12722135,-0.36522633,-0.511814,-0.12521222,0.28168544,0.2389965,-0.1448279,-0.33728105,-0.38474786,-0.29015052,-0.16467333,-0.18528536,-0.30378097,-0.34973222,-0.44616967,-0.19734693,-0.42717576,-0.2574867,-0.45545536,-0.06481746,0.28961343,0.087088086,0.23775637,0.19886206,0.054237276,0.035440892,0.051593915,0.029712692,0.1676342,0.16598813,0.36050236,0.35327178,0.12911141,-0.10543841,-0.31713617,-0.5157529,-0.4915173,-0.45402825,-0.42496562,-0.48737955,-0.48620528,-0.5721874,-0.3383813,-0.341451,-0.22596753,-0.20245948,0.16129833,0.3856396,0.41097635,0.45619965,0.577312,0.18987358,0.052054957,0.12895606,0.23699528,0.21493751,0.15962292,0.2571845,0.15576966,0.3273086,0.13905141,0.024893448,-0.38902855,-0.54812616,-0.54570925,-0.62985873,-0.62985873,-0.5536122,-0.5907464,-0.3908332,-0.34619564,-0.31153506,-0.15094393,0.32873377,0.5429746,0.64004403,0.66528827,0.6052197,0.3887651,0.25913596,0.25472414,0.4010922,0.30801696,0.24413127,0.3846957,0.42940313,0.55820405,0.29868433,0.18533553,-0.19539356,-0.44136816,-0.48621637,-0.5117377,-0.54034454,-0.48704255
m_surprise,0.07038428,0.18705249,-0.25020894,-0.30815667,-0.14456132,0.20886105,-0.25705683,-0.4916792,-0.010078773,0.40497372,-0.044961467,-0.14309931,-0.3366847,-0.12096447,0.39104596,0.6200714,0.19118334,-0.017517164,-0.2818398,-0.2900594,-0.24748418,-0.26373845,-0.25340378,-0.27022332,-0.25743294,-0.22980574,-0.103805214,0.17236575,0.15677467,0.09687816,0.1807666,0.48103243,1.0231086,0.91792744,0.76776856,0.9470815,1.2910137,1.1530278,1.005213,0.5188961,0.5808514,0.7079139,0.9067314,0.9666112,1.0480173,0.41489464,-0.28656745,-0.30822867,-0.42466736,-0.4624427,-0.49573702,-0.39915806,-0.3016329,-0.17609257,0.15401112,0.17858794,0.05240901,0.0064523667,0.2377486,1.0115896,0.5304155,0.83182204,0.6330242,0.69062054,1.0465689,0.5994083,0.4807954,0.1698527,0.61047685,0.3705903,-0.3403343,0.1482165,0.10417545,-0.35299134,-0.30677834,-0.3651876,-0.35572267,-0.3165512,-0.2737824,-0.29377544,-0.18592751,0.096415944,0.11413702,-0.051054,-0.27326965,0.10038478,-0.12427142,-0.5207804,-0.04929559,-0.4510743,-0.62985873,-0.18107438,0.41556388,0.030789837,0.31743234,0.3133916,-0.5284955,-0.38692224,-0.62985873,-0.36892623,-0.47779673,-0.37233818,-0.37425482,-0.33809865,-0.3044406,-0.26349127,-0.17963159,-0.23345333
m_surprise,-0.5270988,-0.62985873,-0.22183916,0.11199241,-0.24822506,-0.15870231,-0.5057629,-0.62985873,-0.49240357,-0.0747869,-0.53356,-0.54258007,-0.5841168,-0.61095965,-0.24669433,-0.62985873,0.10727275,-0.42311597,-0.2609771,0.05900067,-0.39349395,-0.39428842,-0.28463367,-0.18620703,-0.22157028,-0.17709878,-0.10092664,0.3001327,0.10234124,1.172601,1.0985312,1.1712102,0.6219517,0.40518087,0.13067749,0.27839017,0.38973302,0.44493997,0.35624337,0.48537505,0.43111855,0.47779062,0.3150177,0.667088,0.56152904,0.59922135,1.0326595,0.3982901,-0.13480595,-0.3236099,-0.36089718,-0.3970027,-0.3420925,-0.17588258,0.34534696,0.08761914,0.74357575,0.38934594,0.65186965,0.55827713,0.31415388,-0.1388072,-0.22628373,0.17290495,-0.093303114,0.09054128,-0.04963109,0.030791894,0.01941137,-0.093527645,0.30021167,-0.08465439,0.5207855,0.8804559,0.33687454,0.18669277,-0.4417957,-0.31836545,-0.50227994,-0.40549862,-0.21104363,0.36192337,0.28976527,0.91219765,1.0407907,1.104535,0.36949438,0.3991427,0.04672712,0.07666048,0.30199876,0.32948005,0.32555097,0.23597457,0.32793862,0.21136801,0.064769015,-0.008151442,0.18088129,0.023597926,-0.46770853,-0.5792159,-0.29617563,-0.41405648,-0.4329071,-0.36420923,-0.27433822,-0.2385189
m_surprise,-0.044635877,-0.05161822,-0.06812176,-0.024797127,-0.057617337,-0.33365786,-0.29798245,-0.44634724,-0.1896644,-0.24714383,-0.19821802,0.16635615,-0.31756818,-0.3649885,-0.0010464191,-0.3425104,-0.587916,-0.24750164,0.013805717,-0.17741382,-0.3745429,-0.3014069,-0.29950026,-0.20483103,-0.14275932,-0.114504546,-0.16352215,-0.2036902,-0.2944021,-0.2860366,-0.19440773,-0.2531873,-0.26374558,0.18633564,-0.024004042,0.22088203,0.35665327,-0.07132056,-0.07711539,-0.1851174,0.3451351,-0.15835282,0.031373948,0.010035232,0.10827219,-0.15499598,-0.18128347,-0.37905222,-0.467409,-0.48228174,-0.46197587,-0.34769952,-0.35556203,-0.2875257,-0.17141336,-0.2599059,-0.16485664,-0.13434932,-0.08709487,-0.17673123,-0.091325015,0.108512804,-0.24572834,0.18831366,0.13428426,0.17907041,0.054419488,0.28054836,0.2445378,0.16927762,-0.013404056,-0.031977087,0.059228882,-0.08050349,-0.18896046,-0.15036795,-0.23138005,-0.26513666,-0.25538215,-0.2617173,-0.26497775,-0.24693626,-0.30408078,-0.24430177,-0.19606581,-0.27255413,-0.36919886,-0.02756539,-0.26146096,-0.44183558,-0.4191088,-0.026493907,0.06436308,0.12322779,0.2383939,0.12806523,0.24637824,0.21516338,0.24730988,0.14381957,0.16473481,0.0047222227,-0.05766885,-0.15192774,-0.22110522,-0.22427106,-0.27046472,-0.28513852
f_disgust,-0.10781124,-0.026546374,0.046776727,0.025518805,0.010267034,0.18800393,0.5214348,0.6084784,0.8633861,0.8457731,0.23488156,-0.146056,0.24767707,-0.12550804,-0.16280544,-0.038072765,0.17532048,0.42911232,0.40000993,0.30552754,0.80151373,0.52177745,0.25579667,0.13194513,0.5508853,0.9195324,0.56988275,-0.26855087,-0.24749401,-0.038424477,-0.06133288,0.1467536,0.5205108,0.90288395,1.0432832,1.1589186,1.3299851,1.2256784,0.8470455,0.71790016,0.6279994,0.5023219,0.74685144,1.3444562,1.383995,1.7023396,1.3550255,1.2770307,1.4225285,1.5299199,1.6032608,1.7471335,2.1066797,1.4305208,-0.22806641,-0.13801435,0.015241772,-0.014522746,0.23342812,0.5346357,1.0676434,0.77265745,0.9338427,1.2438087,1.3571293,0.9983067,1.0552857,1.0094597,0.75495845,0.96004516,0.9330454,1.7437398,2.2346768,2.0685875,2.1005397,1.8906999,1.8372939,1.6901898,2.3167765,2.689024,1.5957737,-0.2308217,-0.19318518,-0.08937368,-0.20846751,0.042352423,-0.22336444,-0.46964735,-0.40590453,-0.45653594,-0.52000374,0.16535729,0.34728366,0.4954205,0.5229595,0.3616091,-0.08898637,-0.2959861,-0.09900373,0.046232313,0.56669855,0.5783744,0.63764787,0.71112984,0.9620499,0.6323692,0.07716761,-0.027366102
f_fear,0.47333324,0.45588264,0.12102132,0.29574162,0.30210134,0.38782543,0.90565187,0.63674295,0.7800951,0.4730626,0.6326916,0.9228134,0.73627394,0.8337575,1.1118168,1.0783346,0.5868789,1.0509727,1.3473241,1.4430759,1.390974,0.79804313,0.22304176,0.45401952,0.4207296,0.023326933,-0.105529785,0.13508697,0.31638747,0.3531388,0.33923298,0.61576855,1.0881377,1.1224374,1.2202327,0.94477516,0.93068755,1.4293816,1.8879838,1.7443917,1.5832534,1.4117846,1.5658689,1.4489021,1.7852924,1.7765565,1.9026132,1.6480141,0.88357383,0.24572282,0.3735261,0.31913418,-0.021299243,-0.16867623,0.11757657,0.19242457,0.16815858,0.14208919,0.40238464,0.543479,0.22556831,0.18042259,-0.15099859,-0.099482596,-0.05050446,0.025834918,0.011689812,0.54971755,0.44943172,0.4605979,0.38912237,0.22775716,-0.0032995492,-0.16692808,0.019929871,-0.03364508,-0.1701346,-0.0033021122,0.089264244,-0.26005787,-0.1816662,0.22235434,0.07433704,0.1826816,0.052158207,-0.0987761,-0.60508066,-0.55485076,-0.43044102,-0.12742662,0.1185195,-0.2830987,-0.2837312,-0.25856796,-0.561611,-0.62985873,-0.5774177,-0.36477184,-0.55137783,-0.24846783,-0.5683384,-0.62985873,-0.3231693,-0.5940382,-0.17686617,-0.10476604,-0.2403782,-0.20002744
m_happy,0.41606417,-0.1784266,0.35051328,0.12448487,-0.3610834,-0.29422423,-0.43253863,-0.32893443,-0.3194465,-0.41013473,-0.03474292,-0.15778795,-0.51210785,-0.45547563,-0.626183,-0.3029839,-0.62985873,-0.5396089,-0.43187994,-0.62985873,-0.42053658,-0.41402113,-0.5621854,-0.4163317,-0.19178215,0.15723816,-0.27301344,1.1702582,1.0643122,0.9483504,0.72216856,0.26544306,-0.029111147,-0.12904355,-0.2455666,-0.3264429,-0.19438627,0.27406514,0.37858838,0.2000255,0.23466048,0.52891266,0.47820508,0.22232468,0.3288676,0.34647328,0.37777868,0.4600786,0.46692508,0.70616335,0.30803418,0.8517113,0.8954444,0.24946858,0.811607,0.6016181,0.8350417,0.53968537,0.05174111,-0.48794174,-0.5279457,-0.52981335,-0.5036775,-0.26281807,-0.00954324,0.19196448,0.12396386,-0.037457183,0.053168565,-0.11123243,-0.044039235,-0.1398567,0.11521945,0.021053627,0.16333406,0.13723554,0.086377986,-0.28243718,0.23157094,0.3244519,0.117677905,1.0857213,1.1926887,0.9389755,0.6269579,0.011888891,-0.18116942,-0.22879583,-0.18780598,-0.3424633,-0.134298,0.15357354,0.27674776,0.092800654,-0.013267651,0.39813632,0.13417177,0.10933282,0.03788027,-0.013781011,0.09874708,0.24053147,0.12997502,0.199878,-0.15163422,0.26000392,0.6182227,0.24987349
m_sad,-0.2790763,-0.2250036,-0.19393319,-0.37547743,-0.18151477,-0.46788448,-0.3757314,-0.62985873,-0.32111055,-0.28421935,-0.47036868,-0.26588947,0.013599232,0.17707352,-0.2947585,-0.41546655,-0.39676553,-0.13817358,-0.44195795,-0.39639163,-0.28738073,-0.27671692,-0.2727602,0.27862602,0.167471,-0.4540888,-0.4241302,-0.3257867,-0.16807562,-0.20234191,-0.19650793,0.26061708,0.24271894,0.33529115,-0.18656555,0.001746878,0.29108983,0.026119933,-0.039046004,0.05643934,-0.06558591,-0.2701592,0.07758412,0.07580061,-0.02664484,-0.33905923,-0.36304116,-0.28853008,-0.25745025,0.030301929,0.14259925,0.0753188,0.44951025,0.12913701,-0.07867032,0.035210475,0.029534012,-0.037183627,0.09298117,0.35248625,0.2890526,0.22552517,0.3200808,0.44096452,0.21179487,0.1746222,0.30611414,0.2892292,0.16446264,0.032305583,0.12512547,0.05338204,-0.06639317,0.013064578,0.02187027,0.01826775,0.1924002,0.5143275,0.6300523,0.6822773,0.3908379,-0.07688445,0.0058080256,-0.023093536,-0.036515564,0.1293995,0.44370484,0.37893993,0.31775957,0.45713678,0.3899749,0.30798972,0.3170105,0.3342167,0.22211336,0.22959064,0.08500167,0.23671511,0.21461964,0.050956964,0.09011942,-0.044338256,0.014841914,0.21028647,0.4567182,0.67350245,0.8653973,0.3742585
m_fear,0.5523695,0.45918614,0.21035485,0.91228396,0.13143146,0.26566407,0.74472415,0.94998664,0.5676399,-0.119125485,0.6477723,0.61594677,-0.091700345,0.14176176,0.5884998,0.3637217,0.39195955,0.84571,0.64021295,0.038611427,0.15746349,0.68081796,0.6385277,0.31067073,-0.40054423,-0.33222717,-0.34287816,0.98891246,0.7367283,0.6898123,0.9001185,0.6042602,0.98658335,1.0720873,0.97781616,0.9992179,0.7782675,0.9702705,1.2249193,0.8354133,0.8240046,1.4920733,1.4695175,1.5427997,1.2188137,1.3524144,1.3601797,1.2737789,1.512414,1.0953857,0.84383,0.19235735,0.0027095526,-0.1600121,0.68183887,0.61890876,0.62077737,0.5931958,0.5173956,1.089012,1.5391867,1.463002,1.2710991,0.9200496,0.89149535,1.3170018,1.1589146,0.8671032,1.3704646,1.7393074,1.8252666,1.8730605,1.6565869,1.5077808,1.5392585,1.4254959,1.0462537,0.74898106,0.045624003,0.24169514,-0.084334224,0.32792878,0.34538877,0.44005948,0.2695257,0.45244038,0.21339169,0.25901532,0.02993393,0.12089812,0.30778927,-0.11891967,0.56048137,0.7271696,0.034334466,0.05628884,0.0715927,0.23041014,0.4967798,0.4490555,0.5233757,0.27971938,0.83803415,0.94509673,0.642788,0.31104073,0.12869042,0.0011569709
f_angry,0.12060973,0.12389929,0.17262654,0.20896173,0.24968475,0.09929677,0.013699904,0.31725213,0.36575288,0.103581876,0.51382303,0.9510634,0.7173404,0.23570804,0.64580613,1.1527917,0.70228785,0.45583296,0.6943188,0.35751125,0.30915338,0.9858962,0.9979505,0.75752383,-0.004807517,0.64250827,0.45629546,0.07211311,0.025456652,0.07116115,0.1259667,0.21302831,0.007720828,0.347068,0.89729035,0.85125196,0.74650127,0.8327057,0.92585516,1.1238201,0.5660095,0.696672,1.1734542,0.8906409,1.0966644,1.359921,1.3608091,1.2925007,1.40874,1.5205383,1.6531956,1.6905074,1.3684769,0.94846237,0.16567606,0.09395404,0.1711491,0.068609804,0.26950544,0.10622914,0.601974,0.40511388,0.9872022,1.0768098,0.77532023,1.4714837,1.2621615,0.8172318,1.1655333,1.4837246,1.0832753,1.1207821,1.8592923,1.640621,1.5996277,2.1128504,2.3070652,2.1449816,1.7313085,1.7400084,1.2708731,0.082214035,0.09762283,0.07374575,0.1682354,0.08128225,0.19304001,-0.018050194,-0.44110036,-0.22948325,0.16213384,0.30990106,-0.101523966,-0.22937632,0.13015193,-0.078054786,-0.5210779,-0.28783026,-0.16941613,0.094176754,0.68355066,0.91876763,0.45764574,0.33802208,0.3672983,0.6521609,-0.115272015,-0.18127537
f_happy,0.40688848,0.2546981,0.25751668,0.2585592,0.296883,0.9532698,1.086729,1.2413282,1.4121175,1.4435177,1.2586169,1.6057062,1.4021556,1.4350157,1.5221124,1.4868445,1.420955,1.2950563,1.261872,1.4695075,1.3461916,1.2309194,0.8040735,0.3563379,0.08812876,-0.22301155,-0.27900866,0.6677524,0.55950904,0.48462775,0.34312075,0.23948169,0.16374424,-0.05317226,0.3264487,-0.0646784,0.2323986,0.3804723,0.16749786,0.59742117,0.33230454,0.4767382,0.403535,0.52798676,0.9437966,0.5143166,0.31061828,0.9932235,1.1068151,0.88744843,0.8255086,0.39397293,0.07114281,-0.24403232,0.54329634,0.3891422,0.21189055,-0.04884945,-0.33631593,-0.62985873,-0.57964057,-0.62985873,-0.62985873,-0.62985873,-0.62985873,-0.62985873,-0.62985873,-0.62985873,-0.62985873,-0.62985873,-0.62985873,-0.62985873,-0.53311396,-0.27699238,-0.62985873,-0.037756205,0.27447855,0.1374537,0.14704469,-0.2200478,-0.33065075,0.28074178,0.18472135,0.0030334443,-0.36750418,-0.1767498,-0.26224548,-0.3125173,-0.13912281,-0.2865097,-0.30200964,-0.2403352,-0.13113841,-0.10185704,-0.17316312,-0.0939838,-0.06837377,0.006135151,-0.008115992,-0.07674071,-0.14578134,0.15080345,-0.55214876,-0.62985873,-0.44336432,-0.21498594,-0.27600843,-0.38151455
m_surprise,-0.3682201,-0.067593664,-0.28365844,-0.039215878,-0.33285475,-0.09775472,0.13309748,-0.121068895,-0.38063097,-0.4924757,-0.3672182,-0.1304074,-0.31125945,-0.40472126,-0.0768072,-0.07943487,-0.26050448,-0.3651471,-0.3418733,-0.37693816,-0.31387424,-0.34515744,-0.33840877,-0.37435883,-0.36347532,-0.3111326,-0.43360233,-0.50818175,-0.09836164,-0.48513848,0.02530329,-0.2806313,0.029743508,0.034938753,0.021723285,0.08363276,-0.009996295,0.41780388,-0.013129398,0.06246239,-0.019576654,-0.023606464,0.030376643,-0.09724972,-0.28621456,-0.44446236,-0.4868747,-0.4661786,-0.53132856,-0.4722104,-0.5937977,-0.5826032,-0.5708949,-0.61862755,-0.37534535,-0.060368657,-0.38539374,0.07991467,-0.22370946,0.1906305,0.2559266,0.44331446,0.29561925,0.14899932,0.357754,0.19251344,0.13300356,-0.08475235,0.010041833,-0.14249867,-0.24073175,-0.16758168,-0.30869272,-0.3154996,-0.32464695,-0.47794467,-0.40329164,-0.626034,-0.54679614,-0.5236392,-0.5531672,-0.24781635,-0.12287742,-0.29799303,0.0098872185,0.11635809,0.25062907,0.31515023,0.44870746,0.37202364,0.30270702,0.3246418,0.19958639,0.19830371,0.10563454,0.036889702,-0.38694316,-0.43186015,-0.41208273,-0.24358293,-0.3606879,-0.30169088,-0.41672283,-0.47465372,-0.5223633,-0.41296548,-0.3663,-0.4690714
m_sad,-0.38887936,-0.2823335,-0.22454628,-0.23728919,-0.4685486,0.06576449,0.08810645,-0.38148153,-0.35107434,-0.5542042,-0.30536315,-0.36901355,-0.43613768,0.016003892,-0.16041458,-0.5266465,-0.286841,0.13066237,-0.035697743,-0.36315268,-0.33482766,-0.3478011,-0.3148598,-0.31175482,-0.25976735,-0.24848348,-0.35222095,-0.5595852,-0.44426107,-0.49169117,-0.4382102,-0.19870308,0.09500631,0.063641235,-0.11282098,0.109852135,-0.26351452,0.2526082,0.41032124,0.26927865,-0.1926302,-0.105163604,-0.015739456,0.039133012,0.034916222,-0.18987456,-0.30710056,-0.39908177,-0.534589,-0.47093093,-0.54907495,-0.4707219,-0.5356295,-0.54505074,-0.5436778,-0.35229945,-0.3873014,-0.3169543,-0.11986151,0.27784026,0.34624606,0.21620582,0.31065542,0.057472676,0.3835179,0.3604877,0.30595747,0.15547387,0.17778435,0.03934911,-0.0031001717,0.025164008,0.11704441,-0.1408692,-0.26217172,-0.30360243,-0.36549008,-0.44093883,-0.4964562,-0.5439116,-0.522364,-0.4908901,-0.30701035,-0.3340242,-0.24677652,-0.044612482,0.27791598,0.41381133,0.3036959,0.46992758,0.21633635,0.57329,0.5644107,0.34160447,0.22712822,0.30237445,0.14044467,0.17839885,0.16020094,0.09922831,-0.13200715,-0.22236511,-0.21658903,-0.24335027,-0.371629,-0.44267243,-0.49434692,-0.4981326
f_angry,0.18715873,0.22522503,0.2688415,0.41298425,0.42555508,0.24125962,0.87308544,0.96691394,0.82058126,0.34312382,0.3785025,0.9155725,0.822194,0.501928,1.0476596,0.96976656,0.9977298,1.0915585,1.2094231,0.9991554,0.93622273,0.53316367,0.7502438,1.4953704,1.3653159,1.4452055,0.788235,0.14274675,0.1104402,0.26459926,0.27835128,0.42990613,0.71130127,1.2796159,0.5770232,0.5919933,0.28975454,0.31007057,0.72008735,0.57549816,0.7789778,0.5879836,0.8980109,0.8688714,1.2335413,0.96410143,0.7956266,0.9766907,0.95839524,0.6778276,0.67740273,0.5283934,0.3243428,0.21504216,0.20049836,0.17719607,0.27021107,0.2309244,0.46051756,0.42675146,-0.17114362,-0.2825367,-0.27682456,-0.4704318,0.10021813,-0.30599982,-0.2947919,-0.3309139,-0.41633904,-0.4067843,-0.49694145,-0.48223692,-0.62985873,-0.62985873,-0.62985873,-0.41904378,-0.47115034,-0.62985873,-0.62985873,-0.62985873,-0.62985873,0.146398,0.13326553,0.2116644,0.23086569,0.37323236,0.39167565,0.21899822,0.05742146,0.016573697,-0.103367865,-0.19376054,-0.26351252,0.02869822,-0.076090336,-0.06341502,0.09788993,0.115422495,0.01170522,0.055240095,0.069269925,-0.15766391,-0.22745448,-0.21264118,0.11182555,-0.17009899,-0.021642148,0.055918857
m_happy,-0.021217361,0.04470226,0.110254556,0.054555893,-0.2281475,-0.14473325,-0.47496772,-0.34150946,-0.4439376,-0.22988212,0.16871363,-0.21631232,-0.36710113,-0.3952077,0.14813417,-0.14055374,-0.34534007,-0.20649853,0.028198719,0.19560802,-0.011871815,-0.41721117,-0.3883999,-0.35423058,-0.27500033,-0.23637158,-0.33119786,-0.16068953,-0.07377607,-0.11422658,-0.09211391,-0.14881957,0.08795214,0.22543806,0.039409876,0.1693102,-0.04093738,0.07095525,-0.28621408,0.2821255,0.05396709,-0.055287957,0.13583662,0.2851606,0.35834718,0.56126624,0.20085631,0.063366726,-0.14473611,-0.20939755,-0.4005816,-0.38705134,-0.31523144,-0.44932103,-0.2323761,-0.116341084,-0.2835084,-0.22027883,-0.12654826,0.045942977,0.2138233,0.3133671,0.18193671,0.21936718,0.27646202,0.046482176,-0.046809703,0.038937017,0.059194475,0.10457471,0.14607719,0.27244997,0.20377743,0.21484278,0.13369244,0.12131279,0.042001367,-0.07244673,-0.18055668,-0.27709907,-0.36670113,-0.2146678,-0.22255343,-0.18952182,-0.17003289,-0.13425684,0.06692485,0.47061488,0.44095156,0.34902614,0.11868688,0.2387062,0.011107385,-0.04509701,0.14154331,0.14159952,0.2594347,0.28571212,0.34752166,0.33803955,0.26039502,0.20426826,-0.006072223,0.013213769,-0.0131531805,-0.15677997,-0.3365845,-0.36170107
m_happy,0.006279856,-0.010248497,-0.026573002,0.01063174,0.052294612,-0.13314492,-0.113921374,-0.13910604,-0.12242681,-0.06013295,0.5272299,-0.042402044,-0.16976768,0.092772186,-0.0093716085,-0.40358567,-0.23370677,0.4318723,0.40682328,-0.05524291,-0.22195113,-0.22764352,-0.1971477,-0.13577464,-0.13341856,-0.11210737,-0.20456249,0.008976728,-0.05275671,-0.018004343,0.11775686,0.06153229,0.117695004,0.627365,0.5022738,0.59322476,0.4717668,0.7701512,0.46719307,0.79969496,0.41441208,0.41214377,0.37645623,0.50397813,0.8566486,0.43684703,0.1335578,-0.104537904,-0.26020777,-0.34996313,-0.29559335,-0.280338,-0.24566466,-0.2963772,0.16880476,0.17132713,0.21588066,0.22965866,0.34121346,0.5326021,0.746186,0.9391798,0.808691,0.9738233,1.6113765,1.0588135,1.0842905,0.9024117,0.84493935,0.7179973,0.54922736,1.0430562,0.80943966,0.36797076,0.28655848,0.07106826,-0.08385968,-0.112801224,-0.14542633,-0.1568875,-0.2866561,0.115716085,0.11164452,0.18620664,0.20311832,0.2564327,0.39017567,0.8273641,0.87981236,1.0746201,1.0518453,0.39847702,0.44812965,0.9721201,0.9154246,0.9702674,0.6370181,0.8252575,0.22823186,0.10425279,0.41429514,0.01569423,0.098286994,-0.1759738,-0.12515044,-0.1577492,-0.1638329,-0.30076292
f_disgust,0.08609738,0.08501906,0.14935331,0.13111226,0.22766104,0.09620586,-0.0033661723,0.22747406,0.30185348,0.44948375,0.10397226,0.24460979,0.5719244,1.0112575,0.27375636,0.34917322,0.46640998,0.50661653,0.10867871,-0.060595334,-0.15874627,-0.04171279,0.6650716,0.8880101,1.2392831,1.0200381,0.26745647,0.030982539,-0.043232337,-0.004428059,0.055326834,0.22638892,-0.067407995,0.48284712,0.9477934,0.8687854,1.360985,0.7972797,0.3542581,0.7762431,1.1535637,0.5885854,1.0955842,1.0591208,0.7830933,0.95611095,0.90102506,0.7159026,0.8250431,1.7267725,2.0340252,1.6397862,1.5226071,0.8748287,0.16533256,0.12414166,0.12419993,0.17475699,0.1094608,0.2499898,-0.27394,0.43943647,0.2114229,0.80058914,0.59264326,0.53401446,1.1438034,1.6668863,1.4217036,1.3369877,1.6838174,1.5900865,1.287138,1.188059,1.0527284,1.3008897,2.3038108,2.717651,2.7128794,2.4119508,1.214556,0.105177894,0.0528024,0.092639655,0.026015356,0.059819013,-0.019475609,-0.41505557,-0.40447736,-0.62985873,-0.6085128,-0.47294867,0.15051602,-0.26891974,-0.39838403,0.11984416,-0.29983446,-0.22201315,0.09433643,0.72183776,0.87647706,1.0021164,0.7305713,0.59622896,0.66056025,0.825536,0.26958948,-0.08645764
m_neutral,-0.10352585,-0.46873367,-0.62985873,-0.13970765,-0.62985873,-0.62985873,-0.5654687,-0.44116712,-0.62985873,-0.62985873,-0.3681423,-0.4824593,-0.42528403,-0.55296886,-0.5316486,-0.62985873,-0.56755096,-0.5921239,-0.54134774,-0.5228582,-0.62985873,-0.5675995,-0.42158562,-0.4859138,-0.60667574,-0.62985873,-0.58311945,0.71342665,0.8208917,0.74272895,0.56337667,0.7412339,0.26944917,0.103736125,0.21354373,-0.3471201,0.00029695034,0.13082424,-0.029241323,-0.2731188,-0.30341774,-0.079666674,-0.23843369,-0.26644048,0.3162276,-0.090584666,0.2537674,0.5198029,0.32805473,0.17515801,0.20283772,0.13668409,-0.23591384,-0.37624067,0.49090615,0.58753264,0.33236396,0.3824527,0.22063863,-0.31100726,-0.37947863,-0.13772964,-0.4953611,-0.22955233,-0.1598354,-0.43759775,-0.51109856,-0.4375031,-0.18801415,-0.2873957,-0.319116,0.04853843,-0.34266752,-0.2270143,-0.1815173,-0.15531826,-0.19939241,-0.08021593,-0.17577764,-0.23316473,-0.5245771,0.74104077,0.6204531,0.5929477,0.2774446,0.27735874,0.040637672,-0.061388284,0.07887186,0.018242791,-0.022307709,-0.0169933,-0.11552656,-0.3157649,-0.38952458,-0.28429964,-0.28963614,-0.1088666,-0.19430062,-0.34459126,-0.10398102,-0.116610974,-0.06449446,-0.07655373,-0.29571122,-0.41642088,-0.44063234,-0.42662346
f_neutral,0.025160268,0.0013002157,0.075007886,0.02325143,0.028778642,0.061875492,0.12634777,0.2217747,0.115867175,0.16686253,0.43963665,0.05757028,0.2061454,0.20826118,0.13708049,-0.23141548,-0.12131986,0.03856109,-0.055023134,-0.26803774,-0.29048294,-0.23616824,-0.24223149,-0.18405545,-0.14840776,-0.14779475,-0.19632083,0.04070306,0.007565841,0.11109373,0.09055552,0.115594275,0.47886953,0.7332112,0.81001234,0.8312173,0.25057706,0.6468273,0.18879211,0.7119837,0.36112294,0.31330296,0.306362,0.26117608,0.18604659,-0.024328008,-0.002275169,-0.2188308,-0.223874,-0.3116293,-0.22195554,-0.22844717,-0.107249945,-0.21249017,0.2104851,0.16281958,0.28641093,0.16011597,0.31864342,0.16131984,0.104364775,0.045192882,0.09257927,0.5155709,0.77049524,0.664063,0.8986876,0.67202866,0.5762334,0.44508886,0.4091213,0.53356814,0.56142414,0.24295682,0.1488409,0.039476067,-0.034977525,-0.022995576,0.018675447,-0.020518258,-0.13860968,0.110361025,0.11287371,0.13521978,0.050237104,-0.007693544,-0.21701595,-0.5191884,-0.3840019,-0.47657746,-0.09583634,0.35224652,0.21316165,0.3631487,0.69610804,0.4501934,0.58947337,0.5470026,0.6672628,0.57764363,0.45445076,0.33332753,0.14737234,-0.035178736,-0.09871665,0.013655141,-0.022760242,-0.18629155
m_neutral,-0.33522815,-0.27608094,-0.20937577,-0.47008276,-0.23956272,-0.064042956,-0.12059656,-0.3936624,-0.5087484,-0.49500895,-0.26566088,-0.54555154,-0.19278482,-0.18729508,-0.5336864,-0.30056795,-0.023223132,-0.23926342,-0.4672439,-0.39336473,-0.34144306,-0.34265625,-0.2547689,-0.20242086,-0.22287786,-0.22159523,-0.29631785,-0.4433971,-0.33713573,-0.42252368,-0.5537901,-0.03751397,-0.036600024,-0.1545532,-0.18136343,-0.12957323,-0.15146786,0.22323298,0.08523076,-0.05472359,-0.21723104,-0.09546703,-0.016190827,-0.10977468,-0.331845,-0.5012828,-0.5446983,-0.5007318,-0.47622275,-0.36167276,-0.3304035,-0.36814666,-0.40607673,-0.40322804,-0.37529945,-0.21499917,-0.33237582,-0.41777962,-0.15017447,0.1559926,0.15324707,0.100400046,0.0073876083,0.11349267,0.088842094,0.16896062,0.15879953,0.05910334,0.053888425,-0.1024771,-0.15602967,-0.1731537,-0.34008437,-0.27668294,-0.3784966,-0.3418166,-0.29329598,-0.21412683,-0.3771425,-0.39074266,-0.36302698,-0.41234767,-0.33243072,-0.27549425,-0.27301455,-0.07081491,0.21408205,0.20687957,0.28856343,0.3089723,0.3101854,0.49831122,0.34529236,0.4529051,0.35684788,0.24822046,0.28956684,0.16216739,-0.0023081154,-0.088605255,-0.11579895,-0.2955933,-0.36859488,-0.32170695,-0.2718348,-0.36776912,-0.3304615,-0.3140275
m_neutral,-0.44981158,-0.43436676,-0.32204247,-0.3706166,-0.4180296,-0.38952017,-0.54450244,-0.59492785,-0.48381925,-0.4233821,-0.52498317,-0.28991586,-0.22706911,-0.33068246,-0.42125297,-0.48992962,-0.57293147,-0.33156508,-0.29854673,-0.50739646,-0.62985873,-0.54960316,-0.37522113,-0.38611573,-0.2794418,-0.1016283,-0.34602153,-0.5863941,-0.45141095,-0.33179867,-0.4141457,-0.4082557,-0.3552593,-0.18958545,-0.10454172,-0.4418491,-0.17919251,-0.16082633,-0.40152806,-0.27696204,-0.53674525,-0.4694023,-0.47933668,-0.43852937,-0.44130474,-0.4264989,-0.33672887,-0.320875,-0.43397164,-0.074243516,-0.23378614,-0.20346537,-0.2874014,-0.42144132,-0.5541116,-0.5279636,-0.5299836,-0.35660362,-0.29082337,-0.07356864,-0.008938596,0.12461871,0.030481711,0.2229509,0.099400096,-0.13849074,0.18078531,-0.11430699,-0.15330383,0.12705514,0.02486293,0.105220824,0.15410474,0.03419262,-0.14635098,-0.16370311,0.012136102,-0.25756058,-0.20982563,-0.09582695,-0.27506065,-0.5883923,-0.41408694,-0.48668945,-0.41392082,-0.28308204,0.04588802,0.33537364,0.3195385,0.19768512,0.3673025,0.19092578,0.11093126,0.30090466,0.17167237,0.18893132,0.30359903,0.3586592,0.25120586,0.21560769,0.17715864,0.019457817,0.0019964427,0.12370131,0.006453112,0.11516918,-0.07948917,-0.13404351
m_surprise,-0.19454983,-0.14808378,-0.08974901,-0.098104596,-0.34543574,-0.22350067,-0.036014974,-0.50352335,-0.44343138,-0.5891967,-0.5872462,-0.50424373,-0.40110898,-0.58578277,-0.3291456,-0.1619792,-0.5251606,-0.4810742,-0.3289019,-0.19676915,-0.24629182,-0.4525476,-0.38300186,-0.38082308,-0.26605317,-0.3057234,-0.39909488,-0.27809602,-0.22723863,-0.030509919,-0.10160497,-0.13426742,0.072144374,0.10251009,-0.17249596,-0.11360541,-0.044672355,-0.35051727,-0.12743506,0.17882805,0.108000316,-0.08128214,-0.056372374,-0.1369518,-0.2761111,0.09555277,-0.065050304,0.17507553,-0.22866115,-0.33146137,-0.37878323,-0.442021,-0.30362532,-0.39851058,-0.210924,-0.021191895,0.17471942,0.14299698,0.24948502,0.2120409,0.30337256,0.1602237,0.37347656,0.210594,0.17443676,0.24476726,0.27622598,0.272637,0.07413268,0.08139614,0.0020312965,-0.027263507,0.054818958,0.060427412,0.35334545,0.12725541,0.13443917,-0.084402025,-0.21457922,-0.130081,-0.26126835,-0.21759695,-0.013615102,0.1318184,0.16787694,0.40371636,0.5680863,0.5410624,0.48007804,0.5368569,0.21400148,-0.017316326,0.16269954,0.3580553,0.24718969,0.43210095,0.26024225,0.12392996,-0.006841019,0.112572335,0.21101725,0.3495393,0.20947613,0.14004798,0.022399262,-0.11724946,0.04484719,-0.26564568
m_surprise,0.010654554,-0.03077519,-0.029163316,-0.03852816,0.011420503,-0.3069862,-0.13730446,-0.42413503,-0.27223295,-0.38197148,-0.08115247,0.14467834,-0.21762803,-0.39770055,-0.11430809,-0.2002624,-0.5146752,-0.3873837,0.016250819,-0.07049474,-0.124100596,-0.21284583,-0.24784547,-0.1619235,-0.10745108,-0.07296765,-0.15725932,-0.006980583,-0.07320833,-0.056289166,-0.0064136535,0.01329647,-0.06375596,0.4925829,0.2508157,0.23680669,0.2720768,0.12585378,0.31925702,0.08175467,0.51836884,0.033599705,0.05103402,0.10229325,0.13034008,0.6579715,0.10817863,-0.089303225,-0.14960355,-0.29846004,-0.233836,-0.23544002,-0.20920706,-0.25083745,0.17566206,0.13223337,0.21215655,0.25204173,0.36104333,0.29317465,0.6586306,0.69365203,0.6205058,0.49914205,0.6161676,0.7706304,0.47160572,0.58297217,0.4685431,0.41359097,0.3204286,0.20365004,0.55811095,0.25794676,0.16817039,0.103490226,-0.120137185,-0.1068854,-0.11901578,-0.1408028,-0.20916066,0.12762208,0.10502028,0.21043065,0.23825073,0.35960156,0.512524,0.9243575,0.9353147,0.84838516,0.6780498,0.8581425,0.91897446,0.70299256,0.6727287,0.59619546,0.6118237,0.3808975,0.45972285,0.6856073,0.3854977,0.26372427,0.14173433,-0.031121612,-0.03779055,-0.13118663,-0.13788211,-0.24079275
f_surprise,-0.07652095,-0.33864194,-0.37076855,-0.22728366,-0.23708841,0.067064926,0.06620323,0.34182712,0.18763989,-0.084878564,-0.09134424,-0.25515643,-0.04769525,-0.09189275,0.030707136,0.30807215,0.10696507,-0.3377701,-0.1579347,0.20422013,0.3062432,-0.121203035,-0.23328158,-0.14971656,-0.20423535,-0.26606125,-0.30345187,-0.07859391,-0.34480053,-0.33891147,-0.20038491,-0.0061911643,0.44310847,0.4521591,0.6030292,0.63332665,0.23503537,0.90351236,0.40738845,0.7912141,0.9572463,0.7943242,0.55846334,0.621784,0.5767567,0.5408701,0.70460135,0.5619245,0.35077024,0.0027834475,-0.09821612,-0.27417085,-0.2741567,-0.34514624,-0.3627293,-0.27443302,-0.30158338,-0.019207478,0.01362285,0.58912003,0.8922824,0.6754916,0.47301117,0.52719295,1.0834155,0.6928203,1.1625631,1.3211353,1.2567601,1.175304,1.1101663,0.80007315,0.73516816,0.913839,0.6809006,0.4961543,0.2555071,0.09564369,-0.12424478,-0.17235124,-0.22383305,-0.2446925,-0.22003546,-0.13729653,-0.046186402,-0.14597946,0.35807613,0.7497251,-0.06724605,-0.19771042,0.11599354,0.65853155,0.49767062,0.38698292,0.45450404,0.67224526,0.90083694,0.8308599,0.6517489,0.5905757,0.788394,0.005579591,-0.07981938,-0.13700506,-0.19211707,-0.25017935,-0.2670474,-0.32523054
m_neutral,-0.060769975,-0.2741334,-0.17042845,-0.28854343,-0.36573124,-0.45085913,-0.43207997,-0.5225738,-0.51657844,-0.33947027,-0.4562323,-0.083016545,-0.04803258,-0.31016564,-0.37946117,-0.37968212,-0.5058971,-0.093034625,-0.34652638,-0.568081,-0.45214355,-0.05580786,0.08753467,-0.1856392,-0.15430391,-0.26628247,-0.37037712,-0.03950897,-0.33576053,-0.19755909,-0.40286803,-0.2547698,-0.282603,0.03154455,-0.066881806,-0.32512367,-0.054378197,-0.20960817,-0.16903058,-0.14343509,-0.34281027,-0.071220905,-0.14425164,-0.17934936,-0.3346675,-0.15227637,-0.091059506,-0.019320488,0.2836668,-0.10820639,-0.19319743,-0.123928964,-0.20690447,-0.23274308,0.073437035,-0.07812774,-0.035575792,-0.12078586,-0.0025006533,-0.08134282,0.22540782,0.1948773,0.05117145,0.12965325,-0.095617235,0.12810427,0.2734936,-0.14364657,0.19324723,-0.01608339,0.02031131,-0.0049285144,0.03540699,-0.066815674,-0.12333804,0.00031243265,-0.09886563,-0.014430657,-0.036265776,-0.13706532,-0.16744629,-0.0018295944,-0.021332338,0.0132792145,-0.06014806,-0.13055658,-0.03436348,0.43707287,0.25412616,0.24181372,0.31856042,0.21348217,0.25548053,0.39071524,0.12736517,0.38819802,0.12618156,-0.017329246,0.20397519,0.28046727,0.16056417,0.14420049,0.35506013,0.11410011,0.107124306,0.0852246,-0.069595605,-0.094873816
m_fear,0.11246821,0.19412765,0.24965115,0.20049293,0.0373881,-0.12090841,0.0956357,-0.31511402,-0.3058615,-0.5656129,-0.19551435,-0.34927332,-0.25951126,0.32690728,-0.1252647,-0.2959215,0.1809163,0.48120752,0.18214372,-0.1355677,-0.073462605,-0.13469976,0.10760179,0.031502724,-0.23984575,-0.34594387,-0.30590063,0.1526748,0.2266233,0.3366261,0.2664249,0.4205601,0.18592185,0.2183483,0.101056725,0.19397928,0.011023581,0.4911304,0.67033607,0.3289131,0.2587874,0.40035278,0.4643132,0.54594433,0.33654022,0.30530974,-0.0144898,0.060997635,-0.124180496,0.25983167,0.25133508,-0.11521301,-0.18541253,-0.25129363,0.14223918,0.060813382,-0.07643354,-0.21751288,0.24078669,0.29175004,0.5682869,0.38479602,0.4641707,0.43281257,0.7217045,0.71213204,0.64660054,0.70645845,0.6860752,0.42907527,0.40598983,0.5709199,0.40051258,0.23771308,0.21033937,-0.032868207,0.015013412,-0.24341497,-0.47097784,-0.3687052,-0.40672415,0.07111823,-0.041728348,-0.20374992,-0.045963258,0.123571284,0.38467026,0.5012043,0.4614508,0.5878236,0.54232943,0.70892155,0.68455654,0.5730163,0.60015476,0.50687397,0.45533258,0.5109763,0.4815284,0.3883282,0.13012588,0.18183574,0.06267372,-0.015212372,-0.046699703,-0.42629236,-0.33645314,-0.38725656
f_disgust,0.14228152,0.16819409,0.11740596,-0.06717092,-0.021670774,0.041521683,-0.062321305,0.18543783,-0.20198515,0.14750707,-0.016216353,-0.14128894,0.09720097,0.31112564,0.059969813,-0.036524445,-0.10988358,0.18504679,-0.015668646,-0.114801794,-0.35591614,0.056792006,0.3352219,0.6130827,0.5539416,0.06707028,-0.24018028,0.45365116,0.4857616,0.44069296,0.0038844347,0.069113925,0.1486016,0.43760094,0.6839421,0.684239,0.5161326,0.5040498,0.21744777,0.26150328,0.33892098,0.3128226,0.59728646,0.41127443,0.3970414,0.4661924,0.5083512,0.5073472,0.8007579,0.99651784,0.876813,0.65015817,0.6651842,0.16995917,0.28623408,0.46332932,0.25085384,0.07549014,0.25816208,0.18822496,0.49422616,0.9792251,0.97183514,0.8411325,0.7258356,0.6664177,0.89187,0.88966024,0.8659259,0.87994856,0.9080323,0.9714685,0.9293604,0.74023813,0.69619536,0.85394144,0.97309273,1.0503284,1.1271646,1.0753527,0.51909435,-0.057043806,0.084253706,-0.12342653,0.007854447,0.027708754,0.20984897,0.64881504,0.23612984,0.58191377,0.82314956,0.6741344,0.739041,0.9722346,0.9707286,0.8688139,1.0751106,0.8804594,0.91454524,0.9236828,0.88080096,0.74876726,0.89247936,1.0675204,1.1246516,1.0528057,1.000127,0.46023253
f_angry,0.078195445,0.086468466,0.13530865,0.10276956,0.18513206,0.11034188,0.068519324,0.26808012,-0.002922967,0.23641786,0.65758026,0.26665714,-0.008887887,0.42744,0.77129257,0.29447296,0.33994216,-0.012264028,0.31499296,0.55133295,0.4663881,0.19351566,-0.18843323,0.08556501,0.63581693,0.75929284,0.39724877,0.019795597,-0.044271767,-0.005309865,0.05355771,0.12617011,-0.07392058,0.50552094,0.7535488,0.5862398,0.3640594,0.42294735,0.6814966,0.26583338,0.54700553,0.6744135,0.6224447,0.8160028,0.8057354,0.5122059,0.6228053,0.72050065,1.0550663,0.99103063,0.84167933,1.3490665,1.0508376,0.5351178,0.17453685,0.118255995,0.15857074,0.21844214,0.19310157,0.20883639,0.20411013,0.52078646,0.7706784,0.44856042,0.73686236,0.58237094,0.49741614,1.1413786,1.4001336,1.0758356,1.378295,1.2925761,0.9970588,1.0978533,1.0957401,1.2381687,1.2233489,1.1376014,1.4790499,1.4890118,0.83362985,0.105735876,0.062658966,0.10702473,0.059011757,0.08599413,0.08287108,-0.37708157,-0.37505,0.0074350834,0.265102,0.45398298,0.4715476,0.5011971,0.16140409,0.28685546,0.38720614,0.22900866,0.71814936,0.62879103,0.8515133,1.0064678,1.1731749,1.0827672,1.0022244,1.7116339,1.5309384,0.79572374
f_sad,0.15465407,0.24504626,0.2950622,0.0890309,0.20481707,0.5413655,0.6987455,0.78311384,0.61691606,0.9089952,0.77614796,0.36890996,0.66891557,0.82551193,0.9070182,0.7842139,1.0279412,1.0096242,0.8278845,0.41378206,0.6766032,1.2068887,1.2777915,1.3235402,0.69515496,0.19737105,-0.08959985,0.47663227,0.6223346,0.74209625,0.6126471,0.8210308,0.9043153,0.7614768,0.76511,1.0355303,1.2843728,1.5415976,0.95048165,1.0778208,0.82363605,1.5210681,1.571495,1.5013566,1.69907,1.7262676,1.4384973,1.4648678,1.8566711,1.7480595,1.4543517,1.1212623,0.6242219,0.061614186,0.54659736,0.56510377,0.65728116,0.3656478,0.89666516,0.38305426,-0.016105995,-0.16312003,0.22052893,0.005502254,-0.07072553,0.08731799,-0.054543734,-0.18475735,0.0024141967,0.37459892,1.017307,1.0107524,1.3631275,1.2784319,1.0996821,1.1881626,1.1525542,1.8904655,1.2636001,0.7346015,0.18762448,0.5001416,0.6987503,0.6175306,0.5052417,0.57162744,-0.2291421,-0.28335992,-0.07530025,-0.53150624,-0.62985873,-0.62985873,-0.56885326,-0.42265886,-0.17162001,-0.33552235,-0.433985,-0.62985873,-0.62985873,-0.56241846,-0.27068257,-0.48271573,-0.62985873,-0.62985873,-0.62985873,0.3704312,-0.106007785,0.0018737465
m_surprise,0.037527755,0.07950315,0.029117435,-0.022342354,-0.08750793,-0.131118,-0.41972148,-0.21804762,-0.4840765,0.018878192,0.39679852,-0.22400454,-0.046906635,-0.3390594,-0.2446774,0.5460162,-0.090773106,-0.40674877,0.006875187,0.31936732,0.20396198,-0.16599867,-0.2261247,-0.15458488,-0.13781658,-0.08189061,-0.17420197,0.032193378,-0.06470856,0.070148654,-0.027531281,0.11821842,0.57734835,0.5295937,0.37806243,0.3880525,0.35246423,0.45079982,0.38568407,0.5293902,0.09259717,0.20005837,0.3030418,0.39974517,0.24970838,0.6521362,0.6560073,0.5401261,0.13982256,-0.09443736,-0.29775226,-0.1549195,-0.23220748,-0.2786755,0.07407508,-0.14699051,0.07210621,0.063906655,0.44107476,0.71242267,0.7704531,0.64294285,0.4758374,0.7354464,0.9790032,0.6970006,0.59526753,0.450726,0.4637327,0.69264126,0.5546249,0.3983103,0.506285,0.63625336,0.6323071,0.3453827,0.13388471,-0.090966165,-0.16600505,-0.14737567,-0.2826119,0.03389418,0.083829425,0.098916665,0.20691817,0.4775548,0.89294624,0.8706576,0.7674357,0.72333455,0.9222887,1.0201889,0.793478,0.6196904,0.4248041,0.424352,0.57298315,0.5216273,0.38230404,0.41500998,0.5562303,0.11475451,0.25662535,0.043471903,-0.040967688,-0.050764367,-0.12593913,-0.27131078
f_sad,-0.18988264,-0.26804733,-0.26918143,-0.30241448,-0.14338145,-0.006902367,0.20191173,-0.094087034,0.26808453,0.049764395,-0.03859435,0.67495215,0.16928357,0.037259758,0.14189774,0.455459,0.009899259,-0.33166486,0.10546408,0.27245006,0.22400759,-0.22888571,-0.30408916,-0.2454938,-0.18323535,-0.16624081,-0.25274274,0.38373172,0.42458677,0.6740261,0.5646837,0.2901676,0.43952408,1.2007093,0.7893533,0.89133376,0.85965365,0.4986796,0.7626657,0.46030578,0.7869698,0.58010083,0.34871435,0.65403354,0.49261224,0.6193787,0.36677504,0.27001017,0.12952329,-0.20328912,-0.26147857,-0.21156111,-0.38638115,-0.31639564,0.28618014,0.26426882,0.39587545,0.2764575,0.2914759,0.54044294,1.3325076,1.1075103,1.3065414,1.2701995,0.88753533,1.2171333,0.8964887,1.0421077,0.9904424,0.8855821,0.879434,0.6407705,0.5548901,0.39698005,0.4405082,0.27483827,0.11543144,0.0108356625,-0.07806817,-0.22115451,-0.29471397,0.6292162,0.6261058,0.72931474,0.45111638,0.14969313,0.17994928,-0.20445114,0.27892733,0.124264866,0.55099905,0.4961813,0.859179,0.76086026,0.7386666,0.8523058,0.78617716,0.98825085,0.79015505,0.72178876,0.41822886,0.37007922,0.32845414,0.12234855,-0.0050462186,-0.018236727,-0.03654653,-0.23628923
f_surprise,0.046039253,0.07085589,0.083563276,0.22728342,0.062927544,0.11486223,0.60559094,0.15651785,0.07500884,-0.055420786,-0.31958467,0.14179383,0.10714713,-0.0039135963,0.24976268,0.22503608,-0.1694434,-0.06950486,0.4532767,0.47067505,0.3820868,-0.10442987,-0.2614884,-0.20216838,-0.17745402,-0.069665045,-0.18421084,0.02173914,0.015910625,0.037899792,0.15727542,0.11317853,0.32413763,0.68603885,0.5999054,0.676155,0.72841686,0.46066967,0.74160445,0.6488817,1.1468441,0.46453142,0.7639625,0.6738168,0.6229068,0.72369957,0.640339,0.64062786,0.2514428,-0.083569914,-0.22290346,-0.27266377,-0.24201494,-0.3109948,0.19430465,0.1786719,0.2675459,0.36814445,0.28921705,0.68226254,0.95539165,0.6391685,1.1990101,1.0198339,0.8045982,0.60762334,0.11296338,0.88111675,0.8179215,0.7105365,0.94083303,0.8305298,0.1632964,0.3794538,1.042639,0.4131363,0.33573437,0.15285155,0.00036858022,-0.09111053,-0.1937497,0.12493395,0.12717219,0.20573139,0.11640608,0.30100402,0.31458536,-0.14529562,-0.10947639,-0.16070935,-0.0051849782,0.21758139,-0.27770433,0.21194778,0.17147022,0.75254583,0.52424407,0.81956756,0.034290582,0.14763057,0.376324,0.684096,0.60201335,0.34414807,0.22600684,0.036567137,-0.016022846,-0.17754948
m_angry,-0.06659657,-0.31221056,-0.62985873,-0.6267678,-0.37552863,0.098741286,-0.27762613,-0.3939035,-0.5524773,-0.37409276,-0.36920816,-0.36728978,-0.4472534,-0.29993635,-0.3469048,-0.62985873,-0.58854145,-0.524478,-0.22902781,-0.23833507,-0.28020534,-0.27687374,-0.21941072,0.020393565,-0.31449872,-0.34524703,-0.20069522,0.5489648,0.3874333,0.5836444,0.19152294,0.31831998,0.48658597,-0.039184913,-0.04362698,-0.43929428,0.2773351,0.22510052,0.0028644502,-0.037716135,-0.31799072,0.31037003,-0.2498346,0.06437136,0.30080825,0.21847092,0.39943504,-0.06603557,0.49219772,0.5162457,0.30430877,0.16925018,-0.03704405,0.36251694,0.47807696,0.45873022,0.09092176,0.08685496,0.02426231,0.11162573,-0.35410714,-0.3049441,-0.43848622,-0.0575262,-0.14234978,-0.17631868,-0.015709221,-0.28310385,0.1802831,-0.13618323,-0.10166699,0.06966728,0.026272923,-0.0171047,-0.28382355,-0.017495006,-0.033518434,-0.21709326,-0.33158463,-0.35907495,-0.090182394,0.47543013,0.47822672,0.3272627,-0.15913555,-0.10904235,-0.000569731,-0.36008114,-0.31122267,-0.38046944,-0.063622475,-0.47842115,-0.10763785,-0.08338264,-0.29630676,0.03650175,-0.2505197,-0.2023798,-0.06207627,-0.20677602,-0.04320541,-0.065544724,-0.18176898,-0.3002739,-0.17095646,-0.24477696,-0.39843005,-0.14043817
m_neutral,-0.026120916,-0.09385735,-0.06656319,-0.15251476,-0.17389897,-0.25779638,-0.30229488,-0.4956596,-0.34779465,-0.12948993,-0.34066468,-0.05662392,0.11968573,-0.1735811,-0.2273939,-0.40245867,-0.44519997,0.052896693,-0.17418948,-0.41858864,-0.49375713,-0.41270125,-0.15434295,-0.046357453,0.1027077,-0.08805373,-0.28336772,-0.012084842,-0.064188,-0.055526152,0.05089268,-0.06524226,0.02742742,0.40568787,0.21729052,-0.081739366,-0.08988264,-0.0612683,-0.15567914,-0.009670183,-0.29910982,0.28360793,0.17868151,-0.14116332,-0.09948802,0.0001245141,0.09968305,0.309644,0.22715017,0.536289,0.25398043,0.17812726,0.04998344,-0.07307404,0.18726939,0.07173851,0.34642395,0.06358047,0.0023643672,0.4727503,0.46590835,0.54852575,0.3194751,0.31428888,0.019345403,0.16229287,0.44032612,0.21798953,0.3516804,0.5309986,0.23017548,0.51663953,0.47334132,0.3497821,0.31873304,0.26395586,0.35993895,0.32211503,0.37280527,0.1502462,0.025425166,0.11449189,0.0762177,0.25225642,-0.041123256,-0.046064883,0.28380144,0.6556825,0.64832604,0.5589364,0.40483525,0.17837411,0.15303406,0.4210053,0.38733813,0.5599158,0.45253187,0.3966679,0.43110415,0.50669205,0.545112,0.4118933,0.3675894,0.6063363,0.51184386,0.6363031,0.5375596,0.19011244
m_angry,0.12022537,-0.059492856,0.46330965,0.3557797,-0.17443976,0.7236516,0.93031067,0.68141305,0.45127687,1.0490484,0.70629835,-0.01244843,0.13563094,0.19072868,0.16863738,0.3843396,0.47843698,0.7237373,0.44169042,-0.16190514,0.17013873,0.4367305,0.82230556,0.9019548,0.32368097,-0.14889514,-0.26691738,0.07254525,0.20295763,0.31201997,0.4565509,0.20361921,0.9593376,0.80858934,0.90878606,1.0474668,0.87494624,1.0148959,0.6185161,0.7561199,1.0337987,1.17006,1.4089515,0.83791876,0.8749357,1.0087556,0.8016511,0.9594543,1.1824055,1.1547768,1.1245782,0.423379,0.010235712,-0.14035225,0.10852066,-0.05729939,0.25192976,0.13596365,0.16578649,1.0944598,0.41194195,0.6243379,0.5630507,0.7868025,1.4118416,1.0803226,0.7422473,0.27526784,0.49296212,0.91208965,1.2869818,1.6553612,1.5232835,1.4445438,1.1775107,0.5619578,1.0775955,1.0985351,0.73931485,0.46401492,0.17676702,0.002437085,-0.28353813,0.06263013,-0.046638653,0.059181854,-0.48481566,-0.43581825,-0.1997326,-0.234002,-0.16659847,-0.26871392,0.032174736,-0.4116674,-0.47340816,-0.5989615,-0.51879156,0.12999856,0.17672321,0.10076614,0.30074072,-0.34860867,-0.5765643,-0.46225536,0.44741508,0.21072975,0.3426035,0.056706294
m_neutral,0.3716249,0.54891825,0.47523656,0.57112896,-0.052048743,-0.49214482,-0.5432632,-0.052940905,-0.15366873,-0.60377467,-0.33850187,-0.274166,-0.032707214,-0.122790605,-0.62985873,-0.12364197,-0.33325076,0.23484215,-0.4562971,-0.62985873,-0.2331776,0.18289594,-0.09787762,-0.62985873,-0.027993724,0.21270023,0.048727974,0.39130205,0.7257894,0.935249,0.6842111,0.87664557,0.6201856,0.45943004,0.10522765,0.3531921,0.005547017,0.36594498,0.33099857,0.014600575,-0.10139826,-0.11675936,0.078867756,0.13302535,0.08480795,-0.23306382,0.10446882,0.55064917,0.28055805,0.29558006,0.20920022,1.0146654,0.44749376,0.012178734,0.17142531,0.787473,0.61765444,0.7650413,0.42815375,0.33933705,0.07591325,-0.1026212,-0.07682222,-0.28206998,-0.027181327,-0.22304267,-0.25383207,-0.22220364,-0.09877792,-0.21863139,-0.26950055,-0.059797242,-0.25315082,-0.26538092,0.20908171,-0.121525615,0.06656536,-0.29895428,0.15588744,-0.21659064,-0.12076694,0.045197442,0.7939155,0.60934985,0.69952905,0.27885893,0.28048208,0.11644776,0.10317565,0.039426684,-0.08708665,0.08661104,0.030444145,-0.13224372,-0.18289149,-0.22382203,-0.07563317,-0.1522556,-0.06483641,-0.112086356,-0.1564376,0.074881524,-0.10197583,-0.010645926,-0.05684626,0.06118396,-0.08822471,-0.275907
m_surprise,-0.35876596,-0.30944204,-0.45464432,-0.12287566,-0.06897041,-0.2115263,0.13962707,-0.52163464,-0.22588298,0.17679219,-0.1579217,-0.3940782,-0.62985873,-0.46882772,-0.1601485,-0.28398508,-0.0063738823,-0.44875944,-0.31409448,-0.030304164,0.30365393,0.14498073,-0.29319328,-0.10551298,0.15970813,-0.62985873,-0.50242186,-0.18251905,-0.15441024,-0.024854153,0.27504125,0.32768986,0.3982039,0.39949203,0.70730937,0.73292226,0.815131,0.83245593,0.8863674,0.4921393,0.38274622,0.9206149,0.5148037,0.9514692,0.71329015,0.8105084,0.84296924,0.950886,1.4396079,1.0412188,1.5240436,1.176888,0.4572591,0.1591811,-0.42778307,-0.31428432,-0.2703611,-0.4654404,-0.266819,0.031955257,0.2844907,0.4624523,0.7779254,0.91241086,0.1561235,0.64214504,0.45951745,0.38819125,0.9091038,0.41767427,0.6470838,0.40427992,0.52269423,0.90630054,1.154592,1.5259988,1.1051275,1.7888458,1.1455866,0.3863054,-0.1232717,-0.50304574,-0.33523846,-0.38219577,-0.21660554,0.045510188,0.29700318,-0.010686651,0.336252,0.10406039,-0.13797465,-0.32350862,-0.20924333,0.22146922,0.01564081,-0.17077291,0.13768104,0.5464238,0.5903747,0.22912218,0.4038535,0.044557482,-0.42936075,0.27300107,-0.08247611,0.49059606,0.08099299,-0.12401092
f_sad,0.5519161,0.62134814,0.53496647,0.33774912,0.27713448,0.8301864,0.6464808,0.503603,0.9971899,1.040062,0.8463672,0.81300974,1.0419807,0.71123713,0.97992176,1.266515,1.1415014,0.95774144,1.2444696,0.926635,0.89786035,0.6123169,0.9612895,1.1785722,1.4119654,1.2551425,0.4863899,1.1323128,0.94622314,0.8672027,0.36282265,0.5418832,0.07175186,0.2522419,0.307468,0.55009174,1.169399,1.0055952,0.8579232,0.9023625,1.2757666,0.7029701,1.7570744,2.036739,1.5156147,1.6668396,1.6397133,1.7149816,1.5975981,1.8542001,1.9204783,1.757129,1.4711032,0.67417705,0.8966422,0.5957865,0.9267715,0.3172354,0.099629186,-0.16105863,-0.4284355,-0.2130684,-0.43181896,-0.070264846,-0.2673832,-0.0809862,-0.43368798,-0.28522262,-0.2204032,-0.29086202,-0.13592002,-0.10293192,0.08410056,-0.0011382103,0.11041144,0.45964822,0.030408993,0.0006018579,0.14948863,1.115254,0.44855425,0.24802542,0.25993317,0.3007485,0.06793507,0.18047455,-0.18563479,0.14769948,0.05373749,-0.014448479,-0.51915026,-0.13351694,-0.149266,0.14692266,0.12932758,-0.041764155,0.056068107,-0.040897027,0.059091806,-0.039241716,0.061495528,-0.40251213,-0.33528996,0.097384565,0.13761131,-0.53245485,0.04622762,0.13213548
m_angry,0.4381477,0.38974553,0.45813063,0.21641003,0.2589562,-0.063592255,-0.17759609,-0.08531231,-0.36653274,-0.27639323,0.11691673,0.41913006,0.07933005,-0.29731783,0.18976623,0.32558358,-0.2044166,-0.19287214,-0.39982796,-0.26308882,0.42355788,-0.1244044,-0.25312427,-0.35253525,-0.6225227,0.10605398,-0.10193637,0.9700185,0.82356286,1.0554957,0.55854225,0.4249185,0.29901212,0.40984178,0.65861547,0.37097883,0.15460981,0.5285407,0.19817618,0.32671478,-0.19412598,0.00090534985,-0.08841452,-0.06569597,0.44796726,0.18990381,0.10333701,0.22222467,0.32857323,0.34053102,0.44894478,0.40977812,1.1256942,0.55986226,0.11701917,0.119950116,0.13884762,0.18482643,0.47708017,0.257289,0.7210793,0.64395094,0.7195292,0.69826394,0.48827094,0.7166906,0.3563787,-0.16822869,0.13371497,0.07513843,-0.011978,0.27549738,0.3687073,0.23280337,0.54349893,0.41222742,0.39795983,0.51150155,0.4018974,0.7280743,0.46690586,-0.35469908,-0.26540962,-0.21728432,-0.059040844,0.15200372,0.42322344,0.6821136,0.8479341,0.7715168,0.6895665,0.6354497,0.53217226,0.33646524,-0.062310666,0.0728952,0.10237081,0.068491876,0.24841367,0.13542335,0.19832337,0.38666502,0.47387603,0.41080165,0.40520275,0.5163822,0.77885455,0.33142072
m_surprise,0.19151223,0.5368252,0.68683827,0.43243673,-0.35433394,0.010452688,0.031001762,-0.49046046,-0.48081875,-0.5887035,-0.5359677,-0.4505918,0.15042517,-0.24240133,-0.31999594,0.014074951,0.27993247,0.5531216,-0.11122584,-0.27673975,-0.32591426,-0.14191449,-0.14211878,-0.090743095,-0.032756522,0.00016333163,-0.18616807,0.15694654,0.4581225,0.5862031,0.75483197,0.3822735,0.11670672,0.092857815,-0.09434694,-0.038107917,-0.1839324,0.33622596,0.12498524,0.102591686,0.30163875,0.33607793,0.6694994,0.7203738,0.5373037,0.03526683,-0.13908884,-0.41512293,-0.37196618,-0.4752969,-0.47790408,-0.45472568,-0.42626625,-0.4777093,0.016727343,0.25846416,0.61238825,0.712511,0.57603145,0.42665365,0.5343038,0.4189216,0.47325972,0.23446146,0.34511662,0.35615164,0.2978618,0.41862243,0.68196917,0.30376127,-0.17438284,0.47451833,0.08881296,-0.061399877,-0.15523642,-0.29457748,-0.34722924,-0.46880436,-0.43016362,-0.40424,-0.48097867,-0.13218108,-0.085718185,0.33809823,0.21341832,0.28166807,0.26894087,-0.0074008405,-0.08155915,-0.39865506,0.12126641,0.34601215,0.3729659,0.2194495,0.3250519,0.10313859,-0.59409803,-0.45805675,-0.32588267,-0.020597517,-0.31913382,-0.24002686,-0.31600547,-0.40418178,-0.5117248,-0.49030268,-0.45703584,-0.50621057
f_neutral,-0.14883241,-0.052825034,-0.09179765,-0.12365842,-0.26964095,-0.076604664,0.12694207,-0.003576994,-0.26012757,-0.015060246,-0.23092288,-0.42368436,-0.17115384,-0.20194978,-0.069206625,-0.20069322,0.1862343,0.05153799,-0.19080558,-0.341964,0.077657565,0.10388369,0.001022324,-0.32845145,-0.33443183,-0.38988644,-0.4164542,0.1537286,0.43170154,0.4294116,0.32383287,0.23739968,0.20074044,0.3209427,0.20164192,0.26647633,0.494021,0.7400259,0.2502401,0.6373544,0.70859045,0.66957587,0.59730804,0.3650669,0.45928314,0.5606705,0.44745764,0.57676035,0.396178,0.39640227,0.12985188,-0.15543765,-0.35746032,-0.35425645,0.2746618,0.4418192,0.71762735,0.56361794,0.62598103,0.6310548,0.9278272,0.62238073,0.77246284,1.3780694,1.3550551,0.8834577,0.9330156,0.8784619,0.9405074,0.7562027,0.764384,0.88308465,0.7994594,0.77617556,0.7391632,0.7433659,0.79753536,0.5884609,0.18890812,-0.009840503,-0.18954566,0.2175866,0.39450687,0.54424924,0.48184296,0.6193532,0.62227845,0.87172735,0.5337366,0.6350398,0.12389034,0.5629656,0.52538174,0.75887316,0.96413225,0.8244943,0.8948667,0.70902824,0.78548795,0.694253,0.73242754,0.7592039,0.7277187,0.63740957,0.70930105,0.3744158,0.12181089,-0.08240074
f_disgust,0.03936167,0.062388122,0.10337414,0.18427409,0.20043379,0.53742504,0.5482885,0.32757127,0.1322355,0.33680463,0.032251135,0.06579061,0.268471,0.4112111,0.41035932,0.32769752,0.44501606,0.3198669,0.06662149,0.09248666,0.5062209,0.64785194,0.68314195,0.60836643,0.30488303,-0.060044378,-0.13875145,0.014249235,-0.002822727,0.049658805,0.17395678,0.2521441,0.8102888,0.8050709,0.6589272,0.43047243,0.7889364,0.73265016,0.62647355,1.2269783,1.200438,1.3247726,1.0346282,0.8154014,0.9024008,0.85359716,0.8694208,1.1000366,1.0381994,0.95332277,0.72704303,0.6263095,0.23276153,-0.10156241,0.18120041,0.16910797,0.27319142,0.31836522,0.46631676,1.0795562,0.94904226,0.7294433,0.73125756,0.7558428,1.0037799,0.8503287,1.0256296,1.8714876,1.7861347,1.3780217,1.4606376,1.2488759,1.0974826,1.3374934,1.4454935,1.5224047,1.3997636,1.120338,0.70552343,0.37495252,0.020416752,0.12547153,0.0862729,0.16008581,0.102252305,0.4355251,-0.1364736,-0.11215028,-0.34489095,0.09943964,-0.3904745,0.114755325,0.08469501,-0.29769167,0.33343977,-0.051638693,0.5925159,0.22772062,0.68284845,0.8800965,0.4525003,-0.038728416,0.63527536,1.0591166,0.7507733,0.43260053,0.26070234,-0.08248189
m_disgust,-0.4108613,-0.34245378,-0.12410462,0.34086776,-0.35045087,-0.47439831,-0.56321067,-0.62985873,-0.62985873,-0.62122476,-0.62985873,-0.62985873,-0.5174201,-0.46302938,-0.62985873,-0.62985873,-0.62985873,-0.62985873,-0.5245732,-0.4940505,-0.4619354,-0.4615988,-0.41251832,-0.39859384,-0.40523064,-0.24238566,-0.1598486,-0.27002168,0.119957894,-0.19811237,0.2630549,0.54269946,-0.06528783,0.4647099,0.04225643,0.22740671,0.08375098,-0.22949842,0.14196849,0.2038084,-0.15132189,-0.17919555,-0.52561903,-0.62985873,-0.62985873,-0.62985873,-0.6199859,-0.57851624,-0.5123832,-0.4360059,-0.40709245,-0.38242346,-0.23685741,-0.16615987,-0.35584974,-0.26849145,-0.18550771,0.36387974,0.45313945,-0.02420275,0.07912377,-0.1181874,-0.14820904,-0.27525797,-0.3795722,-0.22680289,-0.29600888,-0.4448313,-0.47449833,-0.6262969,-0.62985873,-0.62985873,-0.62985873,-0.51911694,-0.45499837,-0.53450435,-0.5036632,-0.5114046,-0.5615885,-0.29612118,-0.23073548,-0.41000348,-0.28107378,-0.28437334,-0.091544926,0.42704454,-0.11586544,0.14728868,-0.0776487,0.05385703,0.06187336,-0.1632609,-0.06881639,-0.01271224,-0.09071007,-0.15323037,-0.4883824,-0.46096307,-0.46701163,-0.5405251,-0.5061154,-0.47792804,-0.46937895,-0.46008247,-0.4567486,-0.46374202,-0.3020263,-0.22224885
f_angry,0.050992996,0.05638592,0.23528707,0.13793214,0.096856594,0.9538065,0.86935425,0.9635168,0.65229046,0.69791687,0.8763264,0.37402147,0.44473913,0.81677854,1.0009236,1.0947204,1.0545645,0.5589639,0.80091834,1.4239967,1.4368813,1.3944509,1.3229389,1.2087173,0.88537765,0.23286837,0.32822973,0.23525037,0.38296813,0.4144341,0.43969595,0.3342042,-0.11199772,0.015661865,-0.037635356,0.42994335,0.28822312,0.31315693,0.3941977,0.50830853,0.3950343,0.62529993,0.783073,0.9139036,1.0106487,1.345171,1.6381226,1.6033096,1.2955301,1.3146057,1.2357497,1.4765155,1.2114162,0.5017973,0.22435966,0.32577664,0.25947595,0.06908457,-0.27496055,-0.3956629,-0.40850288,-0.36639524,-0.3524086,-0.48685473,-0.5037394,-0.1312981,-0.43778902,-0.53605705,-0.338616,-0.5503342,-0.62083066,0.0069363117,-0.025180683,-0.36074036,-0.20183793,-0.31841415,-0.3484388,-0.50375015,-0.09391239,0.1171037,-0.5404969,0.020610556,0.07685736,0.006068304,0.034674212,-0.30057558,-0.30484152,-0.25578064,-0.18290699,-0.28834897,-0.12756583,0.04834023,-0.20710802,-0.1547671,0.04843518,0.061588645,0.23908456,0.3610571,0.013336897,0.13594258,0.43568513,0.595845,0.48021263,0.15356225,-0.08266291,0.27809277,-0.08556408,-0.035453096
f_disgust,0.057745725,0.069989786,0.114644885,0.113363884,0.27596328,0.18024464,0.15092841,0.17890656,0.46392584,-0.08701819,0.21678016,0.641767,0.279587,-0.13344166,0.021909967,-0.0977934,-0.20820293,-0.29300395,-0.069628716,0.360486,0.13226616,-0.1711255,-0.22438765,0.39968213,0.57280624,0.7575972,0.11695753,0.022233501,-0.049926296,0.026424378,0.08707106,0.21472082,0.095265344,0.7052954,0.8312105,0.9412365,0.4336841,0.5912859,0.7798185,0.47366786,0.34747356,0.6636877,0.41244978,0.34315926,0.1561908,0.25823426,0.77311903,0.81585276,0.8593989,0.6561388,1.247128,1.2018547,0.97778594,0.46684608,0.18915702,0.12348748,0.24227256,0.24436727,0.39424342,0.27470502,0.8687629,1.0090101,1.1171937,0.8160383,1.05122,1.5802486,1.554271,1.019651,1.2509484,1.0255132,0.7619259,0.6605431,0.7196007,1.1968904,1.073046,1.108535,0.95894915,1.2677431,1.2685485,1.2555988,0.66991544,0.11846388,0.08335678,0.16264832,0.14927465,0.17623317,0.26852575,0.23289715,0.13566637,0.011902168,0.47815606,0.7797884,0.6825646,0.19985394,0.6243632,0.86757165,0.93789566,0.7692878,0.69310975,0.7923462,1.1567166,1.1017799,0.9671852,0.9530005,1.2841735,1.3310003,1.1339669,0.5400821
m_neutral,-0.32788688,-0.13771224,-0.25959593,-0.24635595,-0.44656038,-0.28073815,-0.10679141,-0.0052210838,-0.38853276,-0.37683505,-0.32520562,-0.622758,-0.5728936,-0.46763736,-0.53267133,-0.54576415,-0.33252794,-0.08317843,-0.56392,-0.36531752,-0.19510558,-0.28417814,-0.16368836,-0.12888551,-0.27661085,-0.26514855,-0.28215694,-0.418047,-0.10067627,-0.2732304,-0.21255127,-0.2648041,0.014346674,0.005882278,0.056334853,-0.20553315,-0.18694764,-0.112499714,-0.27656186,-0.32928634,0.06275296,-0.05535239,-0.095421076,-0.2567168,-0.2500133,-0.1602265,-0.03027922,0.08768334,-0.1133312,-0.19714546,-0.34629124,-0.40208435,-0.3582552,-0.37761706,-0.3668412,-0.16378793,-0.21067306,-0.11440438,-0.071385354,0.20835708,0.3463414,0.27623507,0.26536748,0.036118045,0.2243047,-0.025845885,0.11049091,0.082557596,-0.029512763,0.019627556,-0.067077935,0.052185938,-0.053774357,-0.053542465,-0.11444524,-0.15145913,-0.20095977,-0.22660235,-0.2554548,-0.40187013,-0.36968642,-0.3977216,-0.25796857,-0.19050273,-0.086737216,0.19568852,0.25145066,0.5529645,0.45785767,0.36341542,0.30519366,0.4100172,0.16179219,0.12976816,0.26699734,0.2376703,0.20684743,0.06827783,0.14926246,0.14269596,0.020677626,0.052456126,-0.0148231685,-0.14636105,-0.24414968,-0.24114597,-0.34281808,-0.32569975
m_neutral,-0.3454795,-0.29122108,-0.35429347,-0.3432957,-0.56934106,-0.3332755,0.032103643,-0.086393505,-0.3085095,-0.426736,-0.4558717,-0.2895501,-0.51375645,-0.2818618,-0.006465465,-0.42140126,-0.45962512,-0.148447,-0.2020911,-0.17454377,-0.25529894,-0.26210862,-0.24407172,-0.24800584,-0.1076785,-0.1461224,-0.23411015,-0.40812236,-0.25141442,-0.21517271,-0.32800794,-0.10716739,-0.037155077,0.04129009,-0.031512365,-0.1688748,0.0143354535,-0.1523504,0.19465187,0.19770896,0.05357033,-0.17432106,-0.038525373,-0.10569063,-0.064943016,-0.23041818,-0.2971248,-0.3768344,-0.37648767,-0.40192288,-0.48702878,-0.2527606,-0.35415423,-0.3731019,-0.34300137,-0.10137251,-0.21800357,0.35102898,0.47078884,0.28416783,0.3042436,0.3416751,0.18546116,0.21089156,0.07719601,0.31282085,0.28226104,0.30516818,0.22928128,0.0678137,-0.022475317,-0.2372536,-0.19412526,-0.16762313,-0.20939589,-0.2809817,-0.2682557,-0.407364,-0.1831859,-0.31689984,-0.34042293,-0.33596957,-0.16736308,-0.20184162,0.2520862,0.4861388,0.52463865,0.45219624,0.4724644,0.38636622,0.23060937,0.10913257,0.45965973,0.3185135,0.3293945,0.285391,0.2105121,0.04756336,0.057682693,-0.036517322,-0.11781719,-0.22740611,-0.2527628,-0.29869872,-0.3924511,-0.2515879,-0.31881726,-0.3598758
f_neutral,-0.0016375631,-0.011226147,-0.0034411699,0.053710848,-0.030971184,0.28752056,0.36022937,0.3081649,0.17860079,0.2768828,-0.031259283,-0.104216725,-0.025333986,-0.0006431192,0.009274349,-0.10729024,0.09485089,0.11522437,0.02948977,-0.1069935,-0.19886956,0.26781744,0.06257135,-0.14332595,-0.21983692,-0.19674236,-0.25827244,0.015416995,-0.009112135,0.03707874,0.11583019,0.20284976,0.5863468,0.45791006,0.6004963,0.650125,0.8374168,0.6158211,0.5412166,0.8979167,0.61160076,0.62167186,0.35589498,0.14818224,0.24418887,0.34786218,0.54195714,0.2836678,0.43504715,0.1475453,0.071481384,-0.18181443,-0.08549863,-0.3122279,0.20078102,0.21206586,0.30077624,0.38125527,0.46689236,0.9014774,1.1147987,1.0887308,1.2468526,1.4227228,1.2851143,0.92860574,1.0602546,0.86948574,0.7750179,0.6999695,0.69008064,0.74031985,0.7180235,0.7378207,0.528614,0.6180011,0.514261,0.3256637,0.121468574,0.11878506,-0.17976293,0.13015473,0.10622657,0.20898566,0.24384099,0.24406399,0.4295463,0.7958816,0.37774882,0.16513905,-0.24554312,-0.0025345683,0.24502197,0.7065216,0.73081714,0.72505105,0.560701,0.44668883,0.62738204,0.5299322,0.7523028,0.4600097,0.54491997,0.3874942,0.20278686,0.06183976,0.051404223,-0.16773704
m_disgust,-0.08170369,-0.04027924,-0.08690739,-0.16256154,-0.3553002,-0.20763886,0.16030464,-0.29396385,-0.5034213,-0.62985873,-0.62733215,-0.4808647,-0.5263968,-0.57912046,-0.4506635,-0.3041653,-0.5229525,-0.24862158,0.21084188,-0.3113581,-0.4970984,-0.48569453,-0.39116067,-0.28232986,-0.24034142,0.13572538,-0.1726237,-0.22555855,-0.22013095,-0.3025184,-0.19513592,-0.24813676,-0.0603261,-0.18224657,-0.14054736,-0.090886116,0.029919773,-0.2708027,-0.372972,-0.037412345,0.3039806,0.21432757,0.034671277,-0.06463218,-0.03272453,-0.30769792,-0.06283179,0.16664988,-0.050489485,0.0061302334,0.47073045,0.6542256,0.19319323,-0.06387019,-0.48100227,-0.4140777,-0.46921933,-0.23918498,-0.083280265,0.10584756,0.08273334,0.17279994,0.06811287,-0.055163294,-0.049453586,-0.022320926,0.19292532,0.17204463,0.11676249,0.16603217,0.18862803,0.17492767,0.19225675,0.123043604,0.09105817,0.18949722,0.13741657,0.15427865,0.30815315,0.15014993,0.06814384,-0.17784184,-0.031881034,-0.0100874305,-0.017489508,0.17937244,0.3499726,0.37843072,0.32277757,0.3146811,0.2522361,0.11539285,0.008417636,0.2503931,0.35727072,0.29921132,0.38912252,0.33581567,0.35664487,0.34887028,0.357552,0.41041288,0.2847383,0.271721,0.21321484,0.36641446,0.4766522,0.2665469
m_disgust,-0.14210689,-0.062719375,-0.08641383,-0.27616575,-0.50378084,-0.27129105,0.045473352,0.17294076,0.31588787,-0.20617956,-0.4900149,-0.00094653666,-0.5597184,-0.5728586,-0.5324777,-0.5531136,-0.52681094,0.060155317,-0.31762052,-0.4864918,-0.42043972,-0.01318422,0.020343155,0.1885559,-0.076780915,-0.34252363,-0.4006145,-0.20831692,-0.13139802,-0.1817177,0.24253255,0.5458062,0.1856766,0.31418765,0.097240955,0.26286942,0.06354408,0.11072837,0.073211394,-0.058737934,-0.3196783,0.027096987,0.26425013,0.17516784,0.04376638,0.0018246621,0.30209488,0.1519721,0.50304484,0.4148421,0.4705081,0.055382892,-0.17850643,-0.34207076,-0.101971805,0.013274744,0.19322956,0.89329344,1.16776,0.6849688,0.7724429,0.6035508,0.7860754,0.578933,0.45674902,0.55087984,0.26805156,0.06193015,0.28915262,0.42220807,0.5193015,0.67287123,0.50543225,0.56906396,0.44626567,0.55456305,0.47613797,0.5032742,0.31776154,0.10104975,-0.12887111,-0.17952803,-0.08268258,0.16848086,0.84403723,1.3226418,1.0546871,0.99928427,0.9535761,0.93262666,0.72339636,0.7606764,0.72358316,0.5966441,0.42747566,0.6188924,0.6182892,0.62306696,0.5756741,0.43512052,0.5296241,0.43376514,0.6657597,0.45603636,0.24816167,0.18309444,0.12482065,-0.052209005
m_neutral,-0.21105528,-0.11826107,-0.14873827,-0.29206422,-0.3841595,-0.21666345,0.10251977,-0.30792093,-0.5520779,-0.49161667,-0.5978819,-0.5285932,-0.60303456,-0.49453658,-0.5102877,-0.45674515,-0.41037095,-0.2714108,-0.2775104,-0.41056758,-0.11878267,-0.0017651021,-0.39558947,-0.47766733,-0.566793,-0.22817796,-0.17671975,-0.30970463,-0.26900423,-0.2814798,-0.35973603,-0.27379602,-0.03746268,-0.1973804,-0.12356824,-0.14910963,0.20247896,-0.1910601,0.062073395,-0.0082078725,-0.018718764,-0.055058137,-0.19596842,-0.33648396,-0.49767727,-0.34586912,-0.18369502,-0.12596804,-0.12619603,-0.058978394,0.27017874,0.23036186,0.42745847,0.080790386,-0.47317082,-0.34540188,-0.3924365,-0.36529684,-0.36168784,0.0040524006,0.063167274,0.064737976,0.12936361,0.20461279,0.19458826,0.12129048,0.058179334,-0.024204224,0.06349608,-0.010556102,0.025394276,-0.000100538135,-0.088989824,-0.022333547,0.2580967,0.4351532,0.27461493,0.36104906,0.35043555,0.23865235,0.033442825,-0.22771877,-0.23019972,-0.24367979,-0.11683062,-0.11228478,0.23757909,0.2312863,0.20191218,0.26283783,0.32723168,0.20991684,0.32421768,0.23187305,0.28580177,0.20700777,0.10582122,0.09640611,0.095901184,-0.006951675,0.027570218,0.3890769,0.56412035,0.53491175,0.72768486,0.5928333,0.4053825,0.15945995
m_neutral,-0.41593623,-0.36909932,-0.5097963,-0.51134723,-0.50088984,-0.3925882,-0.56589365,-0.54368144,-0.48293483,-0.4358186,-0.25685966,-0.18218705,-0.24314919,-0.437097,-0.5687057,-0.49728012,-0.2681178,-0.44110745,-0.62985873,-0.55078053,-0.42129886,-0.3734672,-0.33561033,-0.28929374,-0.31597823,-0.41519564,-0.4660952,-0.54176515,-0.4905969,-0.55245537,-0.6093233,-0.49592495,-0.2908877,-0.15927535,-0.269327,-0.32466018,0.006626576,-0.55665976,-0.1507833,-0.46356094,-0.24859619,-0.41227108,-0.40940046,-0.49663854,-0.4018569,-0.30678722,-0.39796662,-0.05763091,-0.24155441,-0.41213197,-0.4384852,-0.3142308,-0.4288692,-0.40379667,-0.4727533,-0.3066436,-0.5442322,-0.27876508,-0.3543511,-0.031292513,0.02303496,0.20984948,0.20847976,0.17436257,-0.027909398,0.20557341,0.097842745,0.0087593645,0.12668985,0.037139267,0.011882871,0.094836585,0.047416225,0.003775254,0.20556115,0.12040222,0.15593359,-0.11269191,-0.10633609,-0.23161721,-0.30499643,-0.38836843,-0.3659985,-0.53411114,0.09270409,-0.31879938,0.30160668,0.4168519,0.34548968,0.40703923,0.30842832,0.18508303,0.30267787,0.16205731,0.20405671,0.1862572,0.044536278,0.15701625,0.1895659,0.204648,0.17234366,0.20334038,0.21358526,0.101128854,-0.012528196,-0.071374655,-0.21046305,-0.26855147
f_neutral,-0.05815977,-0.11913416,-0.27559918,-0.24578524,-0.23916805,-0.1565688,0.13340127,0.091640584,-0.14506245,-0.0134682655,-0.31353074,-0.3047341,-0.20688298,-0.2670799,-0.34206158,-0.034564972,-0.012630418,-0.16851142,-0.32580715,-0.15244925,0.25675917,0.29450282,-0.10790238,-0.16989267,-0.18933794,-0.27482128,-0.24485454,0.18471548,0.019432142,-0.173731,-0.07304117,-0.12193361,0.21760048,0.6165272,0.3401043,0.3419071,0.50856686,0.290469,0.19188692,0.6328676,0.41245064,0.27276728,0.15258718,0.20263915,0.35126784,0.44360077,0.57158333,0.60616636,0.45862743,0.34067565,0.21916685,0.0807851,-0.13712174,-0.11196184,0.065293536,0.006070718,-0.117667496,0.012604788,0.1501522,0.45598558,0.9160094,0.73002225,1.0628843,1.2191486,0.9537446,0.841435,0.963687,0.98005164,0.8750193,0.77885896,0.9256174,0.84157103,0.97737134,0.9880724,1.079718,1.08547,1.1048938,0.918081,0.6039059,0.20217422,0.046533108,-0.19787756,-0.05457008,-0.11602202,0.16673324,0.10803172,0.47365618,0.9657628,0.8935406,0.8012302,0.3530482,0.65932804,0.44938996,0.8710273,0.85503334,0.85621613,0.7963777,0.9083367,1.0083945,0.96164733,1.248215,1.2063334,0.96341693,0.9557477,0.7586251,0.5541262,0.31712005,0.05471535
m_angry,0.063498735,0.42646903,0.23995176,-0.04299313,0.12761599,0.023440301,-0.22147614,-0.62985873,0.011496529,-0.117317915,-0.62985873,-0.0923281,-0.10116762,-0.62985873,-0.10733464,0.18338458,-0.50842774,-0.40118444,0.23144759,0.009404093,-0.22701353,-0.62985873,-0.22814104,0.05620277,-0.15928987,-0.21279347,-0.2581519,0.0733434,0.30943525,0.87105256,1.5863459,2.5531323,1.1439006,0.96789694,0.9011259,0.6436962,0.67031026,0.5745117,0.6715708,0.6267961,0.392911,0.40638286,0.5085997,0.5261462,0.23601396,0.31735384,0.3502444,-0.020975858,-0.054640085,-0.39971244,-0.4889093,-0.33608878,-0.37700564,-0.294028,0.251693,0.3866774,1.1474866,1.5555987,1.9192007,1.4691534,0.7436965,0.6691269,0.28365034,0.5291036,0.29675332,0.2716415,0.37653828,0.0012497902,0.14848375,0.47662073,0.43289685,0.1848378,0.23709375,0.01468496,-0.04193631,-0.054913282,-0.14001617,-0.22671145,-0.32699555,-0.21288386,-0.32167953,-0.12670404,-0.08002815,0.7567303,-0.36472154,-0.62985873,0.21762234,0.7199063,0.46339685,0.6168487,0.01061523,0.5604332,0.3716565,0.44223174,0.32462618,0.286315,-0.014911443,0.4456717,0.06597333,0.21397763,0.039521486,0.03303556,0.08990918,-0.24186274,-0.333699,-0.36984426,-0.3317656,-0.28531885
f_happy,0.15059438,0.18187904,0.23528384,0.2702072,0.41976392,0.3104859,0.4424769,0.64301956,0.89736325,0.6742785,1.3084693,1.0567567,0.8331234,1.0042946,1.1630313,1.156699,1.0775427,1.1596487,1.3351331,1.2996197,1.2457807,1.1966968,0.9924706,0.17915055,0.024152383,0.2583406,-0.015797362,0.08532887,0.041518226,0.13809107,0.23706022,0.2906299,0.41243172,1.1485188,1.2577512,1.2101614,1.5159302,1.6541183,1.2543252,1.202105,1.4211075,1.0707223,0.9235181,1.1824459,1.0152357,0.583809,0.45382807,0.40892458,0.70348775,0.64775026,0.21633974,-0.0067305863,-0.0387111,-0.09914401,0.16099823,0.12837672,0.1799195,0.13720442,0.2837114,0.3038196,-0.269847,-0.15721661,-0.33431715,-0.030415326,-0.5259191,0.022066712,-0.32139802,-0.46563846,-0.4330693,-0.62985873,-0.62985873,-0.62985873,-0.62985873,-0.62985873,-0.62052596,-0.62985873,-0.62985873,-0.5277057,-0.6054747,-0.22733203,-0.3232298,0.10452312,0.053754076,0.08817741,0.0562101,0.17908604,-0.13638559,-0.2787469,-0.10104859,0.019474328,-0.063801736,-0.0360474,-0.007444054,0.0860306,0.15744919,0.0029098094,0.07636799,-0.16281757,-0.08155438,-0.22383934,-0.25520775,-0.16577631,0.083736524,0.0032770634,-0.20764649,-0.3340283,-0.20877093,-0.23134893
